{"learner":{"attributes":{"scikit_learn":"{\"_estimator_type\": \"classifier\"}"},"feature_names":[],"feature_types":[],"gradient_booster":{"model":{"gbtree_model_param":{"num_parallel_tree":"1","num_trees":"700"},"iteration_indptr":[0,7,14,21,28,35,42,49,56,63,70,77,84,91,98,105,112,119,126,133,140,147,154,161,168,175,182,189,196,203,210,217,224,231,238,245,252,259,266,273,280,287,294,301,308,315,322,329,336,343,350,357,364,371,378,385,392,399,406,413,420,427,434,441,448,455,462,469,476,483,490,497,504,511,518,525,532,539,546,553,560,567,574,581,588,595,602,609,616,623,630,637,644,651,658,665,672,679,686,693,700],"tree_info":[0,1,2,3,4,5,6,0,1,2,3,4,5,6,0,1,2,3,4,5,6,0,1,2,3,4,5,6,0,1,2,3,4,5,6,0,1,2,3,4,5,6,0,1,2,3,4,5,6,0,1,2,3,4,5,6,0,1,2,3,4,5,6,0,1,2,3,4,5,6,0,1,2,3,4,5,6,0,1,2,3,4,5,6,0,1,2,3,4,5,6,0,1,2,3,4,5,6,0,1,2,3,4,5,6,0,1,2,3,4,5,6,0,1,2,3,4,5,6,0,1,2,3,4,5,6,0,1,2,3,4,5,6,0,1,2,3,4,5,6,0,1,2,3,4,5,6,0,1,2,3,4,5,6,0,1,2,3,4,5,6,0,1,2,3,4,5,6,0,1,2,3,4,5,6,0,1,2,3,4,5,6,0,1,2,3,4,5,6,0,1,2,3,4,5,6,0,1,2,3,4,5,6,0,1,2,3,4,5,6,0,1,2,3,4,5,6,0,1,2,3,4,5,6,0,1,2,3,4,5,6,0,1,2,3,4,5,6,0,1,2,3,4,5,6,0,1,2,3,4,5,6,0,1,2,3,4,5,6,0,1,2,3,4,5,6,0,1,2,3,4,5,6,0,1,2,3,4,5,6,0,1,2,3,4,5,6,0,1,2,3,4,5,6,0,1,2,3,4,5,6,0,1,2,3,4,5,6,0,1,2,3,4,5,6,0,1,2,3,4,5,6,0,1,2,3,4,5,6,0,1,2,3,4,5,6,0,1,2,3,4,5,6,0,1,2,3,4,5,6,0,1,2,3,4,5,6,0,1,2,3,4,5,6,0,1,2,3,4,5,6,0,1,2,3,4,5,6,0,1,2,3,4,5,6,0,1,2,3,4,5,6,0,1,2,3,4,5,6,0,1,2,3,4,5,6,0,1,2,3,4,5,6,0,1,2,3,4,5,6,0,1,2,3,4,5,6,0,1,2,3,4,5,6,0,1,2,3,4,5,6,0,1,2,3,4,5,6,0,1,2,3,4,5,6,0,1,2,3,4,5,6,0,1,2,3,4,5,6,0,1,2,3,4,5,6,0,1,2,3,4,5,6,0,1,2,3,4,5,6,0,1,2,3,4,5,6,0,1,2,3,4,5,6,0,1,2,3,4,5,6,0,1,2,3,4,5,6,0,1,2,3,4,5,6,0,1,2,3,4,5,6,0,1,2,3,4,5,6,0,1,2,3,4,5,6,0,1,2,3,4,5,6,0,1,2,3,4,5,6,0,1,2,3,4,5,6,0,1,2,3,4,5,6,0,1,2,3,4,5,6,0,1,2,3,4,5,6,0,1,2,3,4,5,6,0,1,2,3,4,5,6,0,1,2,3,4,5,6,0,1,2,3,4,5,6,0,1,2,3,4,5,6,0,1,2,3,4,5,6,0,1,2,3,4,5,6,0,1,2,3,4,5,6,0,1,2,3,4,5,6,0,1,2,3,4,5,6,0,1,2,3,4,5,6,0,1,2,3,4,5,6,0,1,2,3,4,5,6,0,1,2,3,4,5,6,0,1,2,3,4,5,6,0,1,2,3,4,5,6],"trees":[{"base_weights":[-1.7365574E-8,-5.011226E-1,7.8027385E-1,-5.559171E-1,-4.046244E-2,3.6259692E-2,2.0963337E0,-5.6159616E-1,-2.0895523E-1,1.1779497E0,-2.943793E-1,1.4997259E0,-2.4742597E-1,2.535788E0,1.092768E0,-2.658228E-1,-5.6742173E-1,1.8827586E-1,-1.5201074E-1,-1.0566039E-1,2.116279E0,1.6024971E-1,-1.6950673E-1,-3.6395147E-1,2.2721665E0,3.9075443E-1,-4.4963077E-1,2.60626E0,-1.1586207E-1,-1.7029451E-1,1.8256087E0,-1.5717256E-1,2.603306E-1,-4.0931615E-1,-5.733041E-1,1.733945E-1,-1.3317074E-1,7.1452284E-1,1.733945E-1,-3.5929203E-1,8.0224717E-1,6.6878974E-2,-1.5671642E-1,2.7958374E0,3.738872E-1,2.7072418E0,-5.0856465E-1,-4.9414146E-1,6.038338E-1,2.7823164E0,1.2495667E0,-4.7007298E-1,3.9103448E-1,2.5199997E0,-1.7632255E-2,2.603306E-1,-1.6584845E-1,-1.7388728E-1,-1.4045902E-1,1.1052631E-1,-1.5717256E-1,3.738872E-1,-1.2038217E-1,8.873551E-1,3.8532108E-2,4.924138E-1,-1.394191E-1,8.628183E-1,1.733945E-1,-1.6974893E-1,1.733945E-1,-1.5440725E-1,2.603306E-1,-1.3548388E-1,5.937931E-1,4.2102692E-1,8.7286526E-1,4.6855983E-1,-1.10526316E-1,3.8532108E-2,-1.6128E-1,6.774193E-2,9.043593E-1,3.818182E-1,-1.4861539E-1],"categories":[],"categories_nodes":[],"categories_segments":[],"categories_sizes":[],"default_left":[0,0,0,0,0,0,0,0,0,0,0,0,0,0,0,0,0,0,0,0,0,0,0,0,0,0,0,0,0,0,0,0,0,0,0,0,0,0,0,0,0,0,0,0,0,0,0,0,0,0,0,0,0,0,0,0,0,0,0,0,0,0,0,0,0,0,0,0,0,0,0,0,0,0,0,0,0,0,0,0,0,0,0,0,0],"id":0,"left_children":[1,3,5,7,9,11,13,15,17,19,21,23,25,27,29,31,33,-1,-1,35,37,39,-1,41,43,45,47,49,-1,51,53,-1,-1,55,57,-1,-1,-1,-1,59,61,-1,-1,63,65,67,69,71,73,75,77,79,-1,81,83,-1,-1,-1,-1,-1,-1,-1,-1,-1,-1,-1,-1,-1,-1,-1,-1,-1,-1,-1,-1,-1,-1,-1,-1,-1,-1,-1,-1,-1,-1],"loss_changes":[3.560452E2,1.3973221E1,3.4860742E2,8.588867E-1,1.8915602E1,9.524038E1,5.3940735E1,6.8807983E-1,2.7020302E0,1.293177E1,6.30041E0,5.4443977E1,2.4986214E1,1.9266113E1,3.81859E1,3.7564228E0,2.086029E-1,0E0,0E0,1.507132E0,1.1319065E0,6.829797E0,0E0,1.2113839E0,2.5267181E1,9.8864944E1,7.166395E0,1.7235413E1,0E0,7.6544094E0,3.3296494E1,0E0,0E0,4.2537374E0,3.2180786E-2,0E0,0E0,0E0,0E0,1.5743122E0,5.3534727E0,0E0,0E0,8.518921E0,8.073231E0,3.0987015E0,2.4768429E0,4.3950005E0,1.0167255E1,9.239563E0,6.525551E0,6.3404584E-1,0E0,2.0736816E1,5.625173E0,0E0,0E0,0E0,0E0,0E0,0E0,0E0,0E0,0E0,0E0,0E0,0E0,0E0,0E0,0E0,0E0,0E0,0E0,0E0,0E0,0E0,0E0,0E0,0E0,0E0,0E0,0E0,0E0,0E0,0E0],"parents":[2147483647,0,0,1,1,2,2,3,3,4,4,5,5,6,6,7,7,8,8,9,9,10,10,11,11,12,12,13,13,14,14,15,15,16,16,19,19,20,20,21,21,23,23,24,24,25,25,26,26,27,27,29,29,30,30,33,33,34,34,39,39,40,40,43,43,44,44,45,45,46,46,47,47,48,48,49,49,50,50,51,51,53,53,54,54],"right_children":[2,4,6,8,10,12,14,16,18,20,22,24,26,28,30,32,34,-1,-1,36,38,40,-1,42,44,46,48,50,-1,52,54,-1,-1,56,58,-1,-1,-1,-1,60,62,-1,-1,64,66,68,70,72,74,76,78,80,-1,82,84,-1,-1,-1,-1,-1,-1,-1,-1,-1,-1,-1,-1,-1,-1,-1,-1,-1,-1,-1,-1,-1,-1,-1,-1,-1,-1,-1,-1,-1,-1],"split_conditions":[6.952017E-1,8.43014E-2,-6.2323105E-1,6.2701255E-1,-1.6623177E-1,-7.622953E-1,-2.8599646E-2,-1.3462132E0,-9.4084567E-1,-3.4256718E-1,-6.2572783E-1,-2.881412E-1,-1.8777005E-1,3.739567E0,8.43014E-2,1.2752094E0,-6.910831E-1,1.8827586E-1,-1.5201074E-1,-8.0862147E-1,1.780387E0,1.8663314E-1,-1.6950673E-1,-1.3531975E0,-1.9704813E-1,2.5307382E-2,8.4902894E-1,-2.7950618E-1,-1.1586207E-1,1.4659775E0,2.240374E0,-1.5717256E-1,2.603306E-1,-4.560036E-1,3.9632803E-1,1.733945E-1,-1.3317074E-1,7.1452284E-1,1.733945E-1,-6.1005354E-1,1.2993491E0,6.6878974E-2,-1.5671642E-1,-1.6411944E-1,-1.4978206E-1,-6.86339E-1,-5.993747E-1,2.3933423E0,-7.234942E-1,-7.3951817E-1,1.6265993E0,-7.5859666E-2,3.9103448E-1,1.0160586E0,1.19855486E-1,2.603306E-1,-1.6584845E-1,-1.7388728E-1,-1.4045902E-1,1.1052631E-1,-1.5717256E-1,3.738872E-1,-1.2038217E-1,8.873551E-1,3.8532108E-2,4.924138E-1,-1.394191E-1,8.628183E-1,1.733945E-1,-1.6974893E-1,1.733945E-1,-1.5440725E-1,2.603306E-1,-1.3548388E-1,5.937931E-1,4.2102692E-1,8.7286526E-1,4.6855983E-1,-1.10526316E-1,3.8532108E-2,-1.6128E-1,6.774193E-2,9.043593E-1,3.818182E-1,-1.4861539E-1],"split_indices":[8,4,1,8,14,5,5,9,5,0,5,16,4,13,4,6,13,0,0,5,4,8,0,5,13,9,9,6,0,13,4,0,0,10,8,0,0,0,0,9,1,0,0,14,9,6,4,4,2,13,1,11,0,1,5,0,0,0,0,0,0,0,0,0,0,0,0,0,0,0,0,0,0,0,0,0,0,0,0,0,0,0,0,0,0],"split_type":[0,0,0,0,0,0,0,0,0,0,0,0,0,0,0,0,0,0,0,0,0,0,0,0,0,0,0,0,0,0,0,0,0,0,0,0,0,0,0,0,0,0,0,0,0,0,0,0,0,0,0,0,0,0,0,0,0,0,0,0,0,0,0,0,0,0,0,0,0,0,0,0,0,0,0,0,0,0,0,0,0,0,0,0,0],"sum_hessian":[9.085715E2,5.534694E2,3.5510205E2,4.94449E2,5.9020412E1,2.2751022E2,1.2759184E2,4.858776E2,8.571429E0,9.551021E0,4.946939E1,3.62449E1,1.9126532E2,8.767348E1,3.991837E1,1.0285715E1,4.7559186E2,1.9591838E0,6.6122456E0,4.4081635E0,5.1428576E0,1.8612246E1,3.0857145E1,1.0775511E1,2.5469389E1,4.579592E1,1.4546939E2,8.5714294E1,1.9591838E0,1.4938777E1,2.4979593E1,8.816327E0,1.4693879E0,1.9591839E1,4.5600003E2,1.2244899E0,3.1836736E0,3.9183676E0,1.2244899E0,1.0530613E1,8.081634E0,2.2040818E0,8.571429E0,1.9591839E1,5.8775516E0,1.2244899E1,3.355102E1,1.4008165E2,5.3877554E0,7.493878E1,1.0775511E1,1.2979592E1,1.9591838E0,1.7877552E1,7.1020412E0,1.4693879E0,1.812245E1,4.258776E2,3.0122452E1,1.7142859E0,8.816327E0,5.8775516E0,2.2040818E0,1.8367348E1,1.2244899E0,1.9591838E0,3.9183676E0,1.1020409E1,1.2244899E0,3.2326534E1,1.2244899E0,1.3861226E2,1.4693879E0,3.4285717E0,1.9591838E0,7.346939E0,6.759184E1,9.061225E0,1.7142859E0,1.2244899E0,1.1755103E1,3.4285717E0,1.444898E1,1.4693879E0,5.632653E0],"tree_param":{"num_deleted":"0","num_feature":"18","num_nodes":"85","size_leaf_vector":"1"}},{"base_weights":[-1.7365574E-8,1.2154207E0,-4.4171122E-1,-1.7353293E-1,2.9253728E0,-2.2974588E-1,-5.722269E-1,3.2985563E0,-3.2243684E-1,-4.890798E-1,6.259775E-1,-5.7456684E-1,-2.614108E-1,2.8965518E-1,3.3314114E0,3.082569E-1,-1.6101143E-1,-1.7373544E-1,-2.7244794E-1,1.913669E0,-1.0411519E-2,-1.7454574E-1,-4.3713573E-1,-1.2762432E-1,3.8532108E-2,3.082569E-1,1.0043821E0,-5.5341303E-1,1.6545453E0,2.7355125E0,6.0171902E-2,-4.8E-1,6.741973E-1,3.082569E-1,-1.6748467E-1,3.8532108E-2,-1.7161469E-1,6.685121E-1,-1.4482763E-2,9.098787E-1,1.8827586E-1,-1.4532873E-1,4.4311926E-1,-4.3598622E-2,-1.6629443E-1,-1.5340051E-1,4.6855983E-1],"categories":[],"categories_nodes":[],"categories_segments":[],"categories_sizes":[],"default_left":[0,0,0,0,0,0,0,0,0,0,0,0,0,0,0,0,0,0,0,0,0,0,0,0,0,0,0,0,0,0,0,0,0,0,0,0,0,0,0,0,0,0,0,0,0,0,0],"id":1,"left_children":[1,3,5,-1,7,9,11,13,15,17,19,21,23,-1,25,-1,-1,-1,27,29,31,-1,33,-1,-1,-1,-1,35,37,39,41,43,45,-1,-1,-1,-1,-1,-1,-1,-1,-1,-1,-1,-1,-1,-1],"loss_changes":[4.8885394E2,7.461992E2,1.834465E1,0E0,1.5187463E2,5.715795E1,1.4996338E-1,5.345093E0,4.524278E0,3.6879158E0,4.9205017E1,1.5304565E-1,3.69106E-1,0E0,7.388916E-1,0E0,0E0,0E0,3.327918E1,3.008348E1,1.3556964E1,0E0,4.9226956E0,0E0,0E0,0E0,0E0,7.4590683E-1,7.7850037E0,6.7072983E0,6.2115064E0,5.412173E-1,1.886057E1,0E0,0E0,0E0,0E0,0E0,0E0,0E0,0E0,0E0,0E0,0E0,0E0,0E0,0E0],"parents":[2147483647,0,0,1,1,2,2,4,4,5,5,6,6,7,7,8,8,9,9,10,10,11,11,12,12,14,14,18,18,19,19,20,20,22,22,27,27,28,28,29,29,30,30,31,31,32,32],"right_children":[2,4,6,-1,8,10,12,14,16,18,20,22,24,-1,26,-1,-1,-1,28,30,32,-1,34,-1,-1,-1,-1,36,38,40,42,44,46,-1,-1,-1,-1,-1,-1,-1,-1,-1,-1,-1,-1,-1,-1],"split_conditions":[-6.912038E-1,-5.5885774E-1,-6.5147525E-1,-1.7353293E-1,-1.4120421E-1,-1.6995811E-1,1.7306688E0,-1.2107936E0,-6.1860317E-1,-3.326292E-1,-9.589388E-2,1.780387E0,2.5038126E-1,2.8965518E-1,-1.5678208E0,3.082569E-1,-1.6101143E-1,-1.7373544E-1,7.6720124E-1,4.2400244E-1,8.305072E-1,-1.7454574E-1,1.9016739E0,-1.2762432E-1,3.8532108E-2,3.082569E-1,1.0043821E0,-3.138952E-2,-2.8287292E-1,-6.771472E-1,4.9449506E-1,-6.896859E-1,9.6453136E-1,3.082569E-1,-1.6748467E-1,3.8532108E-2,-1.7161469E-1,6.685121E-1,-1.4482763E-2,9.098787E-1,1.8827586E-1,-1.4532873E-1,4.4311926E-1,-4.3598622E-2,-1.6629443E-1,-1.5340051E-1,4.6855983E-1],"split_indices":[1,2,1,0,4,4,1,5,13,10,4,4,5,0,8,0,0,0,9,9,8,0,4,0,0,0,0,12,16,1,6,1,4,0,0,0,0,0,0,0,0,0,0,0,0,0,0],"split_type":[0,0,0,0,0,0,0,0,0,0,0,0,0,0,0,0,0,0,0,0,0,0,0,0,0,0,0,0,0,0,0,0,0,0,0,0,0,0,0,0,0,0,0,0,0,0,0],"sum_hessian":[9.085715E2,2.4171431E2,6.668572E2,1.1828572E2,1.2342858E2,2.5518369E2,4.116735E2,1.10693886E2,1.27346945E1,1.9616328E2,5.9020412E1,4.0775513E2,3.9183676E0,1.9591838E0,1.087347E2,1.2244899E0,1.1510205E1,1.3738777E2,5.8775513E1,1.8857143E1,4.016327E1,3.8424493E2,2.3510206E1,2.6938777E0,1.2244899E0,1.2244899E0,1.0751021E2,5.191837E1,6.8571434E0,1.27346945E1,6.1224494E0,2.4000002E1,1.6163267E1,1.2244899E0,2.2285715E1,1.2244899E0,5.0693882E1,4.8979597E0,1.9591838E0,1.0775511E1,1.9591838E0,4.8979597E0,1.2244899E0,4.8979597E0,1.9102041E1,7.1020412E0,9.061225E0],"tree_param":{"num_deleted":"0","num_feature":"18","num_nodes":"47","size_leaf_vector":"1"}},{"base_weights":[-1.7365574E-8,-4.5116872E-1,3.226932E0,-5.0355124E-1,2.2377806E0,3.3654609E0,-1.394191E-1,-5.4233575E-1,2.4262801E-1,9.3535525E-1,-1.3755459E-1,-1.04132235E-1,1.0260127E0,2.8965518E-1,-5.47604E-1,1.4609474E0,-1.6786012E-1,-3.864372E-1,-5.776022E-1,4.9480245E-1,2.5873923E0,-1.4290293E-1,1.2675367E-1,-1.407287E-1,-1.7470582E-1,4.7419354E-1,-1.0063898E-1,1.733945E-1,8.719723E-1],"categories":[],"categories_nodes":[],"categories_segments":[],"categories_sizes":[],"default_left":[0,0,0,0,0,0,0,0,0,0,0,0,0,0,0,0,0,0,0,0,0,0,0,0,0,0,0,0,0],"id":2,"left_children":[1,3,5,7,9,11,-1,13,15,-1,-1,-1,-1,-1,17,19,-1,21,23,25,27,-1,-1,-1,-1,-1,-1,-1,-1],"loss_changes":[1.3256926E3,1.1365192E2,5.868445E1,2.283313E1,3.8088936E1,2.3026367E1,0E0,6.4545746E0,3.9370514E1,0E0,0E0,0E0,0E0,0E0,3.3739014E0,1.606607E1,0E0,8.912449E0,4.9118042E-2,9.380039E0,2.8881607E0,0E0,0E0,0E0,0E0,0E0,0E0,0E0,0E0],"parents":[2147483647,0,0,1,1,2,2,3,3,4,4,5,5,7,7,8,8,14,14,15,15,17,17,18,18,19,19,20,20],"right_children":[2,4,6,8,10,12,-1,14,16,-1,-1,-1,-1,-1,18,20,-1,22,24,26,28,-1,-1,-1,-1,-1,-1,-1,-1],"split_conditions":[6.3858354E-1,2.6814904E0,-4.5970693E-1,-1.4884481E-1,-6.3867223E-1,-4.2557735E-2,-1.394191E-1,-2.162194E0,-6.3867223E-1,9.3535525E-1,-1.3755459E-1,-1.04132235E-1,1.0260127E0,2.8965518E-1,-6.3867223E-1,-2.9566292E-2,-1.6786012E-1,-1.570969E-1,-1.4120294E0,-9.967667E-2,3.6769766E-1,-1.4290293E-1,1.2675367E-1,-1.407287E-1,-1.7470582E-1,4.7419354E-1,-1.0063898E-1,1.733945E-1,8.719723E-1],"split_indices":[10,9,4,14,4,11,0,5,4,0,0,0,0,0,4,12,0,14,5,13,9,0,0,0,0,0,0,0,0],"split_type":[0,0,0,0,0,0,0,0,0,0,0,0,0,0,0,0,0,0,0,0,0,0,0,0,0,0,0,0,0],"sum_hessian":[9.085715E2,7.978776E2,1.10693886E2,7.8342865E2,1.444898E1,1.0677552E2,3.9183676E0,7.449796E2,3.8448982E1,1.0775511E1,3.6734695E0,1.4693879E0,1.0530613E2,1.9591838E0,7.4302045E2,1.4938777E1,2.3510206E1,1.1877552E2,6.2424493E2,8.816327E0,6.1224494E0,1.0726531E2,1.1510205E1,3.036735E1,5.9387756E2,3.4285717E0,5.3877554E0,1.2244899E0,4.8979597E0],"tree_param":{"num_deleted":"0","num_feature":"18","num_nodes":"29","size_leaf_vector":"1"}},{"base_weights":[-1.7365574E-8,3.299645E0,-5.6074154E-1,3.4254124E0,2.4221437E-2,2.9121724E-1,-5.747396E-1,1.032163E0,3.082569E-1,3.082569E-1,-1.3755459E-1,1.660079E0,-1.5573035E-1,-1.735627E-1,-3.959445E-1,-1.04132235E-1,7.657459E-1,3.082569E-1,-1.6522235E-1],"categories":[],"categories_nodes":[],"categories_segments":[],"categories_sizes":[],"default_left":[0,0,0,0,0,0,0,0,0,0,0,0,0,0,0,0,0,0,0],"id":3,"left_children":[1,3,5,7,9,11,13,-1,-1,-1,-1,15,-1,-1,17,-1,-1,-1,-1],"loss_changes":[1.684783E3,5.440271E1,9.449249E0,1.0858154E0,3.3276963E0,1.5553173E1,2.9177856E-1,0E0,0E0,0E0,0E0,1.0134573E1,0E0,0E0,4.7794924E0,0E0,0E0,0E0,0E0],"parents":[2147483647,0,0,1,1,2,2,3,3,4,4,5,5,6,6,11,11,14,14],"right_children":[2,4,6,8,10,12,14,-1,-1,-1,-1,16,-1,-1,18,-1,-1,-1,-1],"split_conditions":[-2.9290587E-1,-4.5970693E-1,-3.416512E-1,-3.4330884E-1,-1.20340765E-1,-4.5970693E-1,1.9127918E0,1.032163E0,3.082569E-1,3.082569E-1,-1.3755459E-1,-5.465792E-1,-1.5573035E-1,-1.735627E-1,-3.3855122E-1,-1.04132235E-1,7.657459E-1,3.082569E-1,-1.6522235E-1],"split_indices":[16,4,0,0,6,4,5,0,0,0,0,4,0,0,0,0,0,0,0],"split_type":[0,0,0,0,0,0,0,0,0,0,0,0,0,0,0,0,0,0,0],"sum_hessian":[9.085715E2,1.3126532E2,7.7730615E2,1.26367355E2,4.8979597E0,1.2244899E1,7.650613E2,1.2514287E2,1.2244899E0,1.2244899E0,3.6734695E0,4.1632657E0,8.081634E0,7.4693884E2,1.812245E1,1.4693879E0,2.6938777E0,1.2244899E0,1.689796E1],"tree_param":{"num_deleted":"0","num_feature":"18","num_nodes":"19","size_leaf_vector":"1"}},{"base_weights":[-1.7365574E-8,-1.9616348E-1,3.1029022E0,6.7804873E-1,-4.7054958E-1,1.022989E0,-1.4110672E-1,2.2694736E0,-1.0858326E-1,-5.5405843E-1,7.885471E-2,2.5034168E0,-1.4651163E-1,-3.8679042E-1,4.8375282E-1,-1.0918545E-1,-5.624885E-1,-2.8567407E-1,1.7846762E0,-1.4404333E-1,2.7507906E0,8.1886786E-1,-4.548336E-1,1.7552657E0,-1.680679E-1,-1.5841393E-1,5.7798165E-1,-1.7461953E-1,-4.6361527E-1,7.6586425E-1,-4.3402225E-1,8.651838E-1,-1.4532873E-1,8.692844E-1,-1.2426036E-1,-1.10526316E-1,4.4088396E-1,-1.7236398E-1,-3.46249E-2,8.348228E-1,-4.2317383E-2,-1.730319E-1,2.1824479E-1,-1.4760384E-1,7.834197E-1,-1.4313468E-1,1.6050954E-1],"categories":[],"categories_nodes":[],"categories_segments":[],"categories_sizes":[],"default_left":[0,0,0,0,0,0,0,0,0,0,0,0,0,0,0,0,0,0,0,0,0,0,0,0,0,0,0,0,0,0,0,0,0,0,0,0,0,0,0,0,0,0,0,0,0,0,0],"id":4,"left_children":[1,3,5,7,9,-1,-1,11,13,15,17,19,-1,21,23,25,27,29,31,-1,33,35,37,39,-1,-1,-1,-1,41,43,45,-1,-1,-1,-1,-1,-1,-1,-1,-1,-1,-1,-1,-1,-1,-1,-1],"loss_changes":[5.5424304E2,2.0575204E2,6.1009827E1,2.568789E2,2.9977173E1,0E0,0E0,4.5002594E1,2.295197E1,2.0630188E0,5.458289E1,4.760742E1,0E0,8.129114E0,6.017602E1,1.1058474E1,8.057556E-1,1.1643546E1,3.993236E1,0E0,2.818103E1,4.719906E0,3.5964336E0,4.0037083E1,0E0,0E0,0E0,0E0,1.3460434E1,2.2935968E1,2.935566E0,0E0,0E0,0E0,0E0,0E0,0E0,0E0,0E0,0E0,0E0,0E0,0E0,0E0,0E0,0E0,0E0],"parents":[2147483647,0,0,1,1,2,2,3,3,4,4,7,7,8,8,9,9,10,10,11,11,13,13,14,14,15,15,16,16,17,17,18,18,20,20,21,21,22,22,23,23,28,28,29,29,30,30],"right_children":[2,4,6,8,10,-1,-1,12,14,16,18,20,-1,22,24,26,28,30,32,-1,34,36,38,40,-1,-1,-1,-1,42,44,46,-1,-1,-1,-1,-1,-1,-1,-1,-1,-1,-1,-1,-1,-1,-1,-1],"split_conditions":[3.739567E0,-8.81688E-1,-1.6138853E-1,-2.8751636E-1,4.0040165E-1,1.022989E0,-1.4110672E-1,9.393686E-1,2.4110627E-1,-1.465698E0,5.3211945E-1,-3.052942E-1,-1.4651163E-1,-2.868885E-1,8.604129E-1,-7.234942E-1,1.3213289E0,-7.0492476E-1,-2.9032E-1,-1.4404333E-1,1.3582762E0,-2.5447283E-2,1.4590182E0,-4.108342E-1,-1.680679E-1,-1.5841393E-1,5.7798165E-1,-1.7461953E-1,8.4902894E-1,-7.133492E-2,4.8712036E-1,8.651838E-1,-1.4532873E-1,8.692844E-1,-1.2426036E-1,-1.10526316E-1,4.4088396E-1,-1.7236398E-1,-3.46249E-2,8.348228E-1,-4.2317383E-2,-1.730319E-1,2.1824479E-1,-1.4760384E-1,7.834197E-1,-1.4313468E-1,1.6050954E-1],"split_indices":[13,6,0,16,4,0,0,9,4,8,13,9,0,16,4,2,1,1,16,0,1,17,8,10,0,0,0,0,9,11,13,0,0,0,0,0,0,0,0,0,0,0,0,0,0,0,0],"split_type":[0,0,0,0,0,0,0,0,0,0,0,0,0,0,0,0,0,0,0,0,0,0,0,0,0,0,0,0,0,0,0,0,0,0,0,0,0,0,0,0,0,0,0,0,0,0,0],"sum_hessian":[9.085715E2,8.5542865E2,5.314286E1,2.0400002E2,6.514286E2,4.8979595E1,4.1632657E0,6.685715E1,1.3714287E2,5.654694E2,8.595919E1,6.171429E1,5.1428576E0,9.3551025E1,4.359184E1,1.0775511E1,5.546939E2,7.151021E1,1.444898E1,4.6530614E0,5.706123E1,4.4081635E0,8.914286E1,1.9346941E1,2.42449E1,9.551021E0,1.2244899E0,4.589388E2,9.575511E1,8.326531E0,6.3183678E1,9.551021E0,4.8979597E0,5.4612247E1,2.4489799E0,1.7142859E0,2.6938777E0,6.538776E1,2.3755104E1,1.2244899E1,7.1020412E0,8.791837E1,7.8367352E0,5.3877554E0,2.9387758E0,6.0979595E1,2.2040818E0],"tree_param":{"num_deleted":"0","num_feature":"18","num_nodes":"47","size_leaf_vector":"1"}},{"base_weights":[-1.7365574E-8,-3.2194325E-1,6.1906314E-1,2.2184615E0,-3.4979537E-1,-3.2350972E-1,1.5116575E0,3.8532108E-2,8.0037737E-1,-2.2997008E-1,-5.5330044E-1,-5.411202E-1,1.0571151E0,1.1899685E-2,2.1347158E0,-5.7153714E-1,-3.9554708E-2,-5.702795E-1,-3.778591E-1,3.8532108E-2,-5.4835695E-1,-3.032491E-1,1.4608694E0,1.4664031E0,-1.5960912E-1,2.4848824E0,6.5721875E-1,1.735537E-2,-1.7368178E-1,-3.6430186E-1,5.162758E-1,-4.3063933E-1,-1.7403835E-1,-1.66077E-1,6.5745854E-1,-5.555731E-1,-1.4482763E-2,3.8532108E-2,-1.3548388E-1,-1.3056995E-1,1.9062026E0,-9.633028E-2,6.3108814E-1,3.076923E-1,-3.4529147E-1,1.4180256E0,2.8196476E0,3.4810808E-1,1.660079E0,-1.475122E-1,-2.6713176E-2,3.2710588E-1,-6.3444157E-3,-1.6384916E-1,1.733945E-1,4.4311926E-1,-1.04132235E-1,-1.6886808E-1,-4.6408843E-2,6.3820034E-1,1.735537E-2,3.9763314E-1,-1.6247587E-2,-1.2975152E-1,2.603306E-1,2.3124199E-1,7.274826E-1,-9.633028E-2,8.6451805E-1,3.7598252E-1,1.4093955E-2,1.735537E-2,6.845304E-1],"categories":[],"categories_nodes":[],"categories_segments":[],"categories_sizes":[],"default_left":[0,0,0,0,0,0,0,0,0,0,0,0,0,0,0,0,0,0,0,0,0,0,0,0,0,0,0,0,0,0,0,0,0,0,0,0,0,0,0,0,0,0,0,0,0,0,0,0,0,0,0,0,0,0,0,0,0,0,0,0,0,0,0,0,0,0,0,0,0,0,0,0,0],"id":5,"left_children":[1,3,5,7,9,11,13,-1,-1,15,17,19,21,23,25,27,29,31,33,-1,35,37,39,41,43,45,47,-1,-1,49,51,53,-1,-1,55,57,-1,-1,-1,-1,59,-1,-1,61,63,65,67,69,71,-1,-1,-1,-1,-1,-1,-1,-1,-1,-1,-1,-1,-1,-1,-1,-1,-1,-1,-1,-1,-1,-1,-1,-1],"loss_changes":[1.8147981E2,4.316155E1,2.625907E2,5.8879547E0,1.4343048E1,4.63429E1,1.4965607E2,0E0,0E0,2.4380524E1,4.3749237E-1,7.1131516E-1,1.2022158E1,1.221323E1,5.6914185E1,6.588173E-1,4.3866463E1,2.2323608E-2,4.422279E0,0E0,4.460678E-1,4.200675E-1,1.4701885E1,6.5566425E0,3.9117115E0,2.8545715E1,6.564646E0,0E0,0E0,5.3332787E0,2.7683064E1,2.2870088E0,0E0,0E0,3.5540466E0,2.9172516E-1,0E0,0E0,0E0,0E0,5.390602E0,0E0,0E0,4.8593497E0,3.74565E0,1.362524E1,1.4251343E1,5.0866003E0,5.0110607E0,0E0,0E0,0E0,0E0,0E0,0E0,0E0,0E0,0E0,0E0,0E0,0E0,0E0,0E0,0E0,0E0,0E0,0E0,0E0,0E0,0E0,0E0,0E0,0E0],"parents":[2147483647,0,0,1,1,2,2,3,3,4,4,5,5,6,6,9,9,10,10,11,11,12,12,13,13,14,14,15,15,16,16,17,17,18,18,20,20,21,21,22,22,23,23,24,24,25,25,26,26,29,29,30,30,31,31,34,34,35,35,40,40,43,43,44,44,45,45,46,46,47,47,48,48],"right_children":[2,4,6,8,10,12,14,-1,-1,16,18,20,22,24,26,28,30,32,34,-1,36,38,40,42,44,46,48,-1,-1,50,52,54,-1,-1,56,58,-1,-1,-1,-1,60,-1,-1,62,64,66,68,70,72,-1,-1,-1,-1,-1,-1,-1,-1,-1,-1,-1,-1,-1,-1,-1,-1,-1,-1,-1,-1,-1,-1,-1,-1],"split_conditions":[1.2376634E0,-7.4618423E-1,-6.759409E-1,-1.2612422E0,-1.7469361E-2,3.2436203E-2,-3.682708E-1,3.8532108E-2,8.0037737E-1,-1.03911094E-1,1.4323363E0,-1.5678208E0,-2.9065832E-1,-5.935491E-1,4.0040165E-1,-3.574892E-1,-1.7771024E-1,-3.0877702E-2,-4.9430424E-1,3.8532108E-2,-3.3069998E-2,-3.41294E-1,-1.4113433E0,-3.1405892E-2,-2.5377624E-2,-2.905058E-1,-2.8358296E-1,1.735537E-2,-1.7368178E-1,-6.1230145E-2,-6.6226184E-1,-7.6191705E-1,-1.7403835E-1,-1.66077E-1,8.1981784E-1,9.393686E-1,-1.4482763E-2,3.8532108E-2,-1.3548388E-1,-1.3056995E-1,2.1734165E-1,-9.633028E-2,6.3108814E-1,-2.0766704E-1,1.0897081E0,-2.5338948E-2,-1.7497346E0,-2.5804965E-2,-1.1225351E0,-1.475122E-1,-2.6713176E-2,3.2710588E-1,-6.3444157E-3,-1.6384916E-1,1.733945E-1,4.4311926E-1,-1.04132235E-1,-1.6886808E-1,-4.6408843E-2,6.3820034E-1,1.735537E-2,3.9763314E-1,-1.6247587E-2,-1.2975152E-1,2.603306E-1,2.3124199E-1,7.274826E-1,-9.633028E-2,8.6451805E-1,3.7598252E-1,1.4093955E-2,1.735537E-2,6.845304E-1],"split_indices":[2,1,1,6,11,4,6,0,0,11,1,8,16,1,4,9,6,12,6,0,4,0,6,12,15,16,16,0,0,13,1,6,0,0,5,9,0,0,0,0,9,0,0,5,9,15,9,17,7,0,0,0,0,0,0,0,0,0,0,0,0,0,0,0,0,0,0,0,0,0,0,0,0],"split_type":[0,0,0,0,0,0,0,0,0,0,0,0,0,0,0,0,0,0,0,0,0,0,0,0,0,0,0,0,0,0,0,0,0,0,0,0,0,0,0,0,0,0,0,0,0,0,0,0,0,0,0,0,0,0,0,0,0,0,0,0,0,0,0,0,0,0,0,0,0,0,0,0,0],"sum_hessian":[9.085715E2,5.9804083E2,3.1053064E2,5.632653E0,5.924082E2,1.5134695E2,1.5918369E2,1.2244899E0,4.4081635E0,3.742041E2,2.182041E2,1.3126532E2,2.0081635E1,4.7020412E1,1.1216328E2,1.332245E2,2.4097961E2,1.9689798E2,2.1306124E1,1.2244899E0,1.3004083E2,4.6530614E0,1.5428573E1,4.1632657E0,4.2857147E1,9.012245E1,2.2040817E1,1.4693879E0,1.3175511E2,1.5232654E2,8.865307E1,1.5918368E1,1.809796E2,1.8612246E1,2.6938777E0,1.2808163E2,1.9591838E0,1.2244899E0,3.4285717E0,2.9387758E0,1.2489797E1,1.2244899E0,2.9387758E0,1.2000001E1,3.0857145E1,2.2775513E1,6.734695E1,1.7877552E1,4.1632657E0,1.0359184E2,4.8734695E1,4.236735E1,4.6285717E1,1.4693878E1,1.2244899E0,1.2244899E0,1.4693879E0,1.25387764E2,2.6938777E0,1.1020409E1,1.4693879E0,2.4489799E0,9.551021E0,2.9387756E1,1.4693879E0,1.4938777E1,7.8367352E0,1.2244899E0,6.612245E1,3.6734695E0,1.42040825E1,1.4693879E0,2.6938777E0],"tree_param":{"num_deleted":"0","num_feature":"18","num_nodes":"73","size_leaf_vector":"1"}},{"base_weights":[-1.7365574E-8,-8.588355E-2,1.9214247E0,8.833753E-1,-1.1418523E-1,1.5239344E0,9.311778E-1,-3.582577E-1,8.9599974E-2,1.6884421E0,-1.5469614E-1,-3.9216405E-1,8.129032E-1,3.9623633E-1,-3.227829E-1,1.1565217E0,2.2307692E0,3.8532108E-2,-1.04132235E-1,-4.0430558E-1,5.033058E-1,1.371004E0,1.9967602E-1,-4.380368E-1,7.5539565E-1,2.584615E-1,1.6011341E0,2.2105263E-1,2.392405E0,-2.6296964E-2,-1.4538568E-1,6.9298375E-1,1.5107908E-2,4.2E-1,3.1630777E-2,1.8340611E-1,-1.3888447E-1,6.348837E-1,4.0776696E-2,3.818182E-1,-8.300395E-2,5.7101125E-1,-3.293941E-9,8.4000003E-1,3.3870968E-1],"categories":[],"categories_nodes":[],"categories_segments":[],"categories_sizes":[],"default_left":[0,0,0,0,0,0,0,0,0,0,0,0,0,0,0,0,0,0,0,0,0,0,0,0,0,0,0,0,0,0,0,0,0,0,0,0,0,0,0,0,0,0,0,0,0],"id":6,"left_children":[1,3,5,-1,7,9,-1,11,13,15,17,19,-1,21,23,25,27,-1,-1,29,-1,31,33,35,37,39,41,-1,43,-1,-1,-1,-1,-1,-1,-1,-1,-1,-1,-1,-1,-1,-1,-1,-1],"loss_changes":[1.5026137E2,7.509208E1,1.3581924E1,0E0,4.3031425E1,8.855583E0,0E0,4.2002888E1,5.98053E1,5.621002E0,2.4582013E-1,1.0483055E1,0E0,5.167347E1,2.5409454E1,6.1459103E0,1.3763123E0,0E0,0E0,9.841923E0,0E0,5.608895E1,2.5507246E1,5.0659027E0,1.6452536E1,3.9521801E0,5.2243767E0,0E0,2.6502228E0,0E0,0E0,0E0,0E0,0E0,0E0,0E0,0E0,0E0,0E0,0E0,0E0,0E0,0E0,0E0,0E0],"parents":[2147483647,0,0,1,1,2,2,4,4,5,5,7,7,8,8,9,9,10,10,11,11,13,13,14,14,15,15,16,16,19,19,21,21,22,22,23,23,24,24,25,25,26,26,28,28],"right_children":[2,4,6,-1,8,10,-1,12,14,16,18,20,-1,22,24,26,28,-1,-1,30,-1,32,34,36,38,40,42,-1,44,-1,-1,-1,-1,-1,-1,-1,-1,-1,-1,-1,-1,-1,-1,-1,-1],"split_conditions":[1.9643819E0,-1.8994172E0,4.0803223E0,8.833753E-1,-6.768046E-1,2.67198E0,9.311778E-1,1.3714753E0,-2.763571E-1,-2.1050374E-3,-3.1600407E-1,8.604129E-1,8.129032E-1,-2.5396647E-2,1.2090267E0,-2.5378883E-2,2.240374E0,3.8532108E-2,-1.04132235E-1,-7.181689E-1,5.033058E-1,-1.4120421E-1,-6.9456714E-1,-6.8411715E-2,-4.9430424E-1,-1.1523619E0,2.3933423E0,2.2105263E-1,-7.234942E-1,-2.6296964E-2,-1.4538568E-1,6.9298375E-1,1.5107908E-2,4.2E-1,3.1630777E-2,1.8340611E-1,-1.3888447E-1,6.348837E-1,4.0776696E-2,3.818182E-1,-8.300395E-2,5.7101125E-1,-3.293941E-9,8.4000003E-1,3.3870968E-1],"split_indices":[4,8,4,0,1,4,0,9,16,5,0,4,0,15,2,15,4,0,0,1,0,4,13,11,6,6,4,0,2,0,0,0,0,0,0,0,0,0,0,0,0,0,0,0,0],"split_type":[0,0,0,0,0,0,0,0,0,0,0,0,0,0,0,0,0,0,0,0,0,0,0,0,0,0,0,0,0,0,0,0,0,0,0,0,0,0,0,0,0,0,0,0,0],"sum_hessian":[9.085715E2,8.706123E2,3.7959187E1,7.1020412E0,8.6351025E2,3.0122452E1,7.8367352E0,3.9257144E2,4.709388E2,2.7428574E1,2.6938777E0,3.8914288E2,3.4285717E0,2.7012247E2,2.0081635E2,1.5428573E1,1.2000001E1,1.2244899E0,1.4693879E0,3.876735E2,1.4693879E0,4.4326534E1,2.2579593E2,1.819592E2,1.8857143E1,5.632653E0,9.795919E0,1.7142859E0,1.0285715E1,7.885715E1,3.0881635E2,2.5469389E1,1.8857143E1,1.5428573E1,2.1036736E2,3.6734695E0,1.7828572E2,5.1428576E0,1.3714287E1,1.4693879E0,4.1632657E0,8.081634E0,1.7142859E0,6.8571434E0,3.4285717E0],"tree_param":{"num_deleted":"0","num_feature":"18","num_nodes":"45","size_leaf_vector":"1"}},{"base_weights":[3.5942043E-3,-4.6750763E-1,5.2562463E-1,-5.294443E-1,-3.745986E-2,3.7127454E-2,1.0745704E0,-5.361356E-1,-1.7182213E-1,5.3929555E-1,-3.981165E-1,7.6229537E-1,-2.455576E-1,1.1814423E0,4.9283025E-1,-2.161759E-1,-5.4309285E-1,5.046961E-1,-1.4414158E-1,9.21959E-1,-1.4926107E-1,4.777441E-1,-1.6635709E-1,-1.898583E-1,1.1452299E0,-2.964781E-1,3.5893604E-1,1.3073008E0,7.522073E-1,8.359676E-1,-1.5505983E-1,-1.4919047E-1,2.1808314E-1,-3.635278E-1,-5.501536E-1,3.283825E-1,-9.6009746E-2,-1.7734222E-2,1.1633373E0,4.4106573E-1,-1.3192509E-1,4.3968055E-1,-1.5771145E-1,1.2623249E0,-1.2528248E-1,5.3629592E-2,-4.1527954E-1,1.3350472E0,-1.0961494E-1,1.1018962E0,-3.799238E-1,-1.55312E-2,1.1703799E0,2.199846E-1,-1.5839821E-1,-1.672816E-1,-1.3021135E-1,-1.2510403E-1,1.7431317E-1,4.1546285E-1,-1.8183125E-2,2.2841242E-1,-1.09735E-1,4.0877038E-1,-1.17131375E-1,3.472507E-1,-1.6322733E-1,-1.4986002E-1,4.7560856E-2,1.8215148E-1,4.2383933E-1,3.7840024E-1,-1.3863644E-1,-1.3830125E-1,4.1179147E-2,1.7645322E-1,-1.4056304E-1,3.979253E-1,-2.0971999E-2],"categories":[],"categories_nodes":[],"categories_segments":[],"categories_sizes":[],"default_left":[0,0,0,0,0,0,0,0,0,0,0,0,0,0,0,0,0,0,0,0,0,0,0,0,0,0,0,0,0,0,0,0,0,0,0,0,0,0,0,0,0,0,0,0,0,0,0,0,0,0,0,0,0,0,0,0,0,0,0,0,0,0,0,0,0,0,0,0,0,0,0,0,0,0,0,0,0,0,0],"id":7,"left_children":[1,3,5,7,9,11,13,15,17,19,21,23,25,27,29,31,33,35,-1,37,-1,39,-1,41,43,45,-1,47,49,51,-1,-1,-1,53,55,-1,-1,57,59,-1,-1,61,-1,63,-1,65,67,69,-1,71,73,75,77,-1,-1,-1,-1,-1,-1,-1,-1,-1,-1,-1,-1,-1,-1,-1,-1,-1,-1,-1,-1,-1,-1,-1,-1,-1,-1],"loss_changes":[2.1442679E2,1.218763E1,1.10868484E2,8.663559E-1,1.2440254E1,4.5261604E1,1.1523239E1,7.5678253E-1,2.0859115E0,9.59885E0,5.2974973E0,2.2792976E1,1.2027187E1,7.864334E0,1.1496298E1,3.017802E0,2.864685E-1,1.9332393E0,0E0,3.9168186E0,0E0,6.204265E0,0E0,4.1672854E0,8.634014E0,6.441967E0,0E0,6.3025208E0,1.6052008E1,6.9139137E0,0E0,0E0,0E0,3.537533E0,7.5737E-2,0E0,0E0,1.3170984E0,3.7937717E0,0E0,0E0,2.0977726E0,0E0,7.4010773E0,0E0,2.7015415E1,5.656147E0,6.129013E0,0E0,8.170124E0,4.8523414E-1,2.4130838E0,3.4603596E0,0E0,0E0,0E0,0E0,0E0,0E0,0E0,0E0,0E0,0E0,0E0,0E0,0E0,0E0,0E0,0E0,0E0,0E0,0E0,0E0,0E0,0E0,0E0,0E0,0E0,0E0],"parents":[2147483647,0,0,1,1,2,2,3,3,4,4,5,5,6,6,7,7,8,8,9,9,10,10,11,11,12,12,13,13,14,14,15,15,16,16,17,17,19,19,21,21,23,23,24,24,25,25,27,27,28,28,29,29,33,33,34,34,37,37,38,38,41,41,43,43,45,45,46,46,47,47,49,49,50,50,51,51,52,52],"right_children":[2,4,6,8,10,12,14,16,18,20,22,24,26,28,30,32,34,36,-1,38,-1,40,-1,42,44,46,-1,48,50,52,-1,-1,-1,54,56,-1,-1,58,60,-1,-1,62,-1,64,-1,66,68,70,-1,72,74,76,78,-1,-1,-1,-1,-1,-1,-1,-1,-1,-1,-1,-1,-1,-1,-1,-1,-1,-1,-1,-1,-1,-1,-1,-1,-1,-1],"split_conditions":[6.952017E-1,8.43014E-2,-6.2323105E-1,6.2701255E-1,-1.6572429E-1,-6.457666E-1,1.6216879E-1,-1.3462132E0,-9.4084567E-1,1.9538878E-1,-1.2265792E0,-2.8460068E-1,5.856093E-1,-7.234942E-1,1.0612E-1,1.2752094E0,-6.910831E-1,-3.1875634E-1,-1.4414158E-1,-2.5807925E-2,-1.4926107E-1,-7.234942E-1,-1.6635709E-1,-1.2107936E0,1.789742E0,-1.8777005E-1,3.5893604E-1,4.363061E0,-4.3985698E-1,-7.2610813E-1,-1.5505983E-1,-1.4919047E-1,2.1808314E-1,-4.560036E-1,3.9632803E-1,3.283825E-1,-9.6009746E-2,1.0378084E0,9.4732505E-1,4.4106573E-1,-1.3192509E-1,3.5991216E-1,-1.5771145E-1,-3.6989245E-1,-1.2528248E-1,1.8126155E-1,5.4704493E-1,-2.870045E-1,-1.0961494E-1,1.6265993E0,-2.8547324E-2,1.3929226E0,-6.024763E-1,2.199846E-1,-1.5839821E-1,-1.672816E-1,-1.3021135E-1,-1.2510403E-1,1.7431317E-1,4.1546285E-1,-1.8183125E-2,2.2841242E-1,-1.09735E-1,4.0877038E-1,-1.17131375E-1,3.472507E-1,-1.6322733E-1,-1.4986002E-1,4.7560856E-2,1.8215148E-1,4.2383933E-1,3.7840024E-1,-1.3863644E-1,-1.3830125E-1,4.1179147E-2,1.7645322E-1,-1.4056304E-1,3.979253E-1,-2.0971999E-2],"split_indices":[8,4,1,8,14,5,5,9,5,9,9,16,11,2,9,6,13,0,0,17,0,2,0,5,13,4,0,13,10,9,0,0,0,10,8,0,0,6,6,0,0,9,0,10,0,9,9,16,0,1,12,1,6,0,0,0,0,0,0,0,0,0,0,0,0,0,0,0,0,0,0,0,0,0,0,0,0,0,0],"split_type":[0,0,0,0,0,0,0,0,0,0,0,0,0,0,0,0,0,0,0,0,0,0,0,0,0,0,0,0,0,0,0,0,0,0,0,0,0,0,0,0,0,0,0,0,0,0,0,0,0,0,0,0,0,0,0,0,0,0,0,0,0,0,0,0,0,0,0,0,0,0,0,0,0,0,0,0,0,0,0],"sum_hessian":[8.6990436E2,4.5731174E2,4.125926E2,3.9953806E2,5.777368E1,2.1888148E2,1.937111E2,3.9170975E2,7.8283315E0,2.2037079E1,3.5736603E1,6.091654E1,1.5796495E2,1.6277649E2,3.093462E1,9.018634E0,3.826911E2,2.2535918E0,5.5747395E0,1.6177315E1,5.8597646E0,5.1034446E0,3.0633158E1,1.7616905E1,4.3299633E1,1.5334444E2,4.62052E0,1.24287674E2,3.848881E1,2.3216675E1,7.7179446E0,7.311826E0,1.7068076E0,1.6464361E1,3.6622675E2,1.1230567E0,1.1305351E0,3.495553E0,1.2681761E1,2.162159E0,2.9412856E0,6.021163E0,1.1595742E1,4.0460438E1,2.839196E0,3.8989883E1,1.14354546E2,1.224582E2,1.8294768E0,2.9426392E1,9.062422E0,6.815706E0,1.6400969E1,1.6959144E0,1.4768446E1,3.4056857E2,2.5658175E1,2.2792532E0,1.2162997E0,1.0626793E1,2.0549684E0,4.3418207E0,1.679342E0,3.831231E1,2.1481278E0,1.3367047E1,2.5622837E1,9.98264E1,1.4528141E1,1.2668531E1,1.09789665E2,2.6879765E1,2.5466254E0,7.928146E0,1.1342756E0,2.7939575E0,4.021748E0,1.45064945E1,1.8944745E0],"tree_param":{"num_deleted":"0","num_feature":"18","num_nodes":"79","size_leaf_vector":"1"}},{"base_weights":[-1.0164567E-2,-4.8059368E-1,5.9768575E-1,-5.2373034E-1,2.241459E-2,1.2358567E0,-5.264454E-1,-1.6859123E-1,-4.185572E-1,9.555485E-1,-1.640693E-1,1.3393117E0,-2.9064757E-1,5.428539E-2,-5.53807E-1,-1.6661978E-1,2.1840142E-1,-3.0372503E-1,1.4636005E0,1.3918099E0,8.289302E-1,4.1040224E-1,-4.5337015E-1,2.7221474E-1,-1.362945E-1,-1.682723E-1,-2.0197505E-1,6.1182904E-1,-1.5031895E-1,4.062585E-2,-1.3925822E-1,-1.2061509E-1,5.6060904E-1,-1.2001985E-1,4.213446E-1,-4.2169023E-1,1.3296102E0,-1.04667164E-1,3.4453553E-1,-1.620156E-1,-1.5469085E-1,-1.1778084E-1,5.961526E-2,2.7465212E-1,-1.3009952E-1,4.076399E-2,-1.6121912E-1,3.5569757E-2,4.2255187E-1,-1.09986104E-1,6.0894746E-2],"categories":[],"categories_nodes":[],"categories_segments":[],"categories_sizes":[],"default_left":[0,0,0,0,0,0,0,0,0,0,0,0,0,0,0,0,0,0,0,0,0,0,0,0,0,0,0,0,0,0,0,0,0,0,0,0,0,0,0,0,0,0,0,0,0,0,0,0,0,0,0],"id":8,"left_children":[1,3,5,7,9,11,13,-1,15,17,-1,19,21,23,25,-1,27,29,31,33,35,37,39,-1,-1,-1,41,43,-1,-1,-1,-1,-1,-1,-1,45,47,-1,-1,49,-1,-1,-1,-1,-1,-1,-1,-1,-1,-1,-1],"loss_changes":[2.5056769E2,1.072966E1,2.749087E2,1.5946655E0,2.1758345E1,3.894809E1,2.240982E0,0E0,1.1037319E1,1.0368069E1,0E0,4.9778748E0,2.0476499E0,3.523853E0,2.189064E-1,0E0,6.7787294E0,4.354356E-1,9.233963E0,5.240082E0,1.5473335E1,2.4175994E0,1.6535354E-1,0E0,0E0,0E0,3.983089E-1,5.2331448E0,0E0,0E0,0E0,0E0,0E0,0E0,0E0,5.6126726E-1,1.4809875E0,0E0,0E0,3.6372423E-1,0E0,0E0,0E0,0E0,0E0,0E0,0E0,0E0,0E0,0E0,0E0],"parents":[2147483647,0,0,1,1,2,2,3,3,4,4,5,5,6,6,8,8,9,9,11,11,12,12,13,13,14,14,16,16,17,17,18,18,19,19,20,20,21,21,22,22,26,26,27,27,35,35,36,36,39,39],"right_children":[2,4,6,8,10,12,14,-1,16,18,-1,20,22,24,26,-1,28,30,32,34,36,38,40,-1,-1,-1,42,44,-1,-1,-1,-1,-1,-1,-1,46,48,-1,-1,50,-1,-1,-1,-1,-1,-1,-1,-1,-1,-1,-1],"split_conditions":[1.2090267E0,1.780387E0,-6.8064654E-1,7.258201E-1,1.9016739E0,-9.589388E-2,-6.759409E-1,-1.6859123E-1,-1.6098733E-1,-6.726553E-1,-1.640693E-1,5.1887417E-1,-5.554639E-1,-1.4120421E-1,1.7306688E0,-1.6661978E-1,-6.6226184E-1,-2.8924984E-1,-7.12443E-1,-4.5970693E-1,-4.388497E-1,-6.605326E-1,-2.6609096E-1,2.7221474E-1,-1.362945E-1,-1.682723E-1,3.398378E-2,-5.465792E-1,-1.5031895E-1,4.062585E-2,-1.3925822E-1,-1.2061509E-1,5.6060904E-1,-1.2001985E-1,4.213446E-1,-4.5822245E-1,-6.9456714E-1,-1.04667164E-1,3.4453553E-1,-7.1276385E-1,-1.5469085E-1,-1.1778084E-1,5.961526E-2,2.7465212E-1,-1.3009952E-1,4.076399E-2,-1.6121912E-1,3.5569757E-2,4.2255187E-1,-1.09986104E-1,6.0894746E-2],"split_indices":[2,4,1,9,4,4,1,0,14,1,0,9,13,4,1,0,1,16,5,4,10,13,13,0,0,0,9,4,0,0,0,0,0,0,0,10,13,0,0,1,0,0,0,0,0,0,0,0,0,0,0],"split_type":[0,0,0,0,0,0,0,0,0,0,0,0,0,0,0,0,0,0,0,0,0,0,0,0,0,0,0,0,0,0,0,0,0,0,0,0,0,0,0,0,0,0,0,0,0,0,0,0,0,0,0],"sum_hessian":[8.742579E2,4.9295682E2,3.8130106E2,4.5398322E2,3.89736E1,2.4315962E2,1.3814145E2,3.2974597E2,1.2423725E2,1.4510943E1,2.4462654E1,2.278409E2,1.531873E1,6.171514E0,1.3196994E2,1.0237203E2,2.1865217E1,4.287066E0,1.0223877E1,2.0502489E2,2.2816011E1,2.599092E0,1.2719639E1,2.012233E0,4.1592813E0,1.287767E2,3.1932275E0,1.42321825E1,7.633034E0,1.1890835E0,3.0979826E0,1.8252585E0,8.398619E0,1.2250792E0,2.037998E2,6.567983E0,1.6248028E1,1.5410087E0,1.0580833E0,2.8739343E0,9.845704E0,2.177487E0,1.0157405E0,1.1125081E1,3.1071017E0,1.0987855E0,5.4691978E0,1.1468471E0,1.5101181E1,1.8387519E0,1.0351824E0],"tree_param":{"num_deleted":"0","num_feature":"18","num_nodes":"51","size_leaf_vector":"1"}},{"base_weights":[-1.1621833E-2,-4.3750113E-1,1.2729343E0,-4.955723E-1,1.1773316E0,1.3484192E0,-1.5157998E-1,-2.2186194E-1,-5.5628335E-1,1.4364221E0,-1.2679301E-1,-1.341488E-1,1.3801323E0,-4.0018868E-1,6.208086E-1,-4.3729907E-1,-1.6853231E-1,4.4498685E-1,1.3137591E-1,1.386623E0,3.2404434E-2,3.7702763E-1,-4.4828966E-1,1.4365262E0,4.9525402E-2,3.241624E-1,-1.6357715E-1,1.3938546E0,8.994882E-2,4.7565658E-2,-1.5179844E-1,-1.0442587E-1,5.4812384E-1,1.6084687E-1,-1.5095347E-1,1.2935404E-1,4.194157E-1],"categories":[],"categories_nodes":[],"categories_segments":[],"categories_sizes":[],"default_left":[0,0,0,0,0,0,0,0,0,0,0,0,0,0,0,0,0,0,0,0,0,0,0,0,0,0,0,0,0,0,0,0,0,0,0,0,0],"id":9,"left_children":[1,3,5,7,9,11,-1,13,15,17,-1,-1,19,21,23,25,-1,-1,-1,27,-1,-1,29,31,33,-1,-1,35,-1,-1,-1,-1,-1,-1,-1,-1,-1],"loss_changes":[4.793019E2,6.228427E1,2.996289E1,1.0442291E1,1.0197868E1,1.2549011E1,0E0,1.7843946E1,9.390259E-2,2.9288864E-1,0E0,0E0,1.5523682E0,8.314204E0,9.641899E0,5.085652E0,0E0,0E0,0E0,1.1933594E0,0E0,0E0,3.415413E0,6.594696E0,3.84535E0,0E0,0E0,2.190857E-1,0E0,0E0,0E0,0E0,0E0,0E0,0E0,0E0,0E0],"parents":[2147483647,0,0,1,1,2,2,3,3,4,4,5,5,7,7,8,8,9,9,12,12,13,13,14,14,15,15,19,19,22,22,23,23,24,24,27,27],"right_children":[2,4,6,8,10,12,-1,14,16,18,-1,-1,20,22,24,26,-1,-1,-1,28,-1,-1,30,32,34,-1,-1,36,-1,-1,-1,-1,-1,-1,-1,-1,-1],"split_conditions":[-1.1365129E-1,2.6814904E0,-4.5970693E-1,-6.3867223E-1,-6.3867223E-1,-2.6113536E-2,-1.5157998E-1,-1.5686414E-1,-1.4120294E0,9.671852E-2,-1.2679301E-1,-1.341488E-1,7.8504056E-1,-1.9011424E0,-3.2416284E-1,-2.5393851E-2,-1.6853231E-1,4.4498685E-1,1.3137591E-1,1.2918383E0,3.2404434E-2,3.7702763E-1,-6.8073964E-1,5.1073074E-1,6.9683284E-1,3.241624E-1,-1.6357715E-1,-1.7866848E-2,8.994882E-2,4.7565658E-2,-1.5179844E-1,-1.0442587E-1,5.4812384E-1,1.6084687E-1,-1.5095347E-1,1.2935404E-1,4.194157E-1],"split_indices":[14,9,4,4,4,11,0,14,5,5,0,0,8,5,13,15,0,0,0,13,0,0,9,9,5,0,0,0,0,0,0,0,0,0,0,0,0],"split_type":[0,0,0,0,0,0,0,0,0,0,0,0,0,0,0,0,0,0,0,0,0,0,0,0,0,0,0,0,0,0,0,0,0,0,0,0,0],"sum_hessian":[8.7411395E2,6.569646E2,2.1714937E2,6.3482855E2,2.2136034E1,2.0853857E2,8.610797E0,1.1609206E2,5.187365E2,1.9139E1,2.997034E0,3.391879E0,2.051467E2,9.624887E1,1.9843184E1,2.6440456E1,4.9229605E2,1.7817188E1,1.3218117E0,2.0401573E2,1.1309601E0,2.0063987E0,9.424247E1,7.549264E0,1.22939205E1,1.1575099E0,2.5282946E1,2.023865E2,1.6292297E0,8.031673E0,8.62108E1,1.3750011E0,6.174263E0,6.5536575E0,5.740263E0,1.3289618E0,2.0105754E2],"tree_param":{"num_deleted":"0","num_feature":"18","num_nodes":"37","size_leaf_vector":"1"}},{"base_weights":[-1.6351864E-2,1.3431542E0,-5.445185E-1,-1.4415553E-1,1.3767493E0,2.0525867E-1,-5.489217E-1,1.3894104E0,-1.04806095E-1,-1.8921386E-1,-5.5319613E-1,-1.0807016E-1,1.3999655E0,-1.4663303E-1,1.7869143E-1,-5.577798E-1,-3.4570575E-1,1.366057E-1,4.2099723E-1,-1.6828331E-1,-4.2065597E-1,3.106459E-1,-1.577346E-1,-1.5887061E-1,9.6963026E-2],"categories":[],"categories_nodes":[],"categories_segments":[],"categories_sizes":[],"default_left":[0,0,0,0,0,0,0,0,0,0,0,0,0,0,0,0,0,0,0,0,0,0,0,0,0],"id":10,"left_children":[1,3,5,-1,7,-1,9,11,-1,13,15,-1,17,-1,-1,19,21,-1,-1,-1,23,-1,-1,-1,-1],"loss_changes":[6.3034204E2,1.5710236E1,3.7960052E0,0E0,5.7619324E0,0E0,8.647766E-1,4.9344482E0,0E0,2.3893485E0,3.99292E-1,0E0,1.18133545E-1,0E0,0E0,2.7648926E-2,4.545454E0,0E0,0E0,0E0,1.6053324E0,0E0,0E0,0E0,0E0],"parents":[2147483647,0,0,1,1,2,2,4,4,6,6,7,7,9,9,10,10,12,12,15,15,16,16,20,20],"right_children":[2,4,6,-1,8,-1,10,12,-1,14,16,-1,18,-1,-1,20,22,-1,-1,-1,24,-1,-1,-1,-1],"split_conditions":[-2.9280972E-1,-3.574892E-1,-3.4513187E-1,-1.4415553E-1,-6.6226184E-1,2.0525867E-1,-3.416512E-1,-6.3867223E-1,-1.04806095E-1,2.351512E-1,1.9127918E0,-1.0807016E-1,-7.1700144E-1,-1.4663303E-1,1.7869143E-1,1.5697826E0,-3.1398777E-2,1.366057E-1,4.2099723E-1,-1.6828331E-1,2.4683914E-1,3.106459E-1,-1.577346E-1,-1.5887061E-1,9.6963026E-2],"split_indices":[16,9,0,0,1,0,0,4,0,13,5,0,1,0,0,6,12,0,0,0,13,0,0,0,0],"split_type":[0,0,0,0,0,0,0,0,0,0,0,0,0,0,0,0,0,0,0,0,0,0,0,0,0],"sum_hessian":[8.758393E2,2.4462614E2,6.3121313E2,4.1842685E0,2.4044186E2,1.7026484E0,6.295105E2,2.3888469E2,1.5571738E0,7.9243E0,6.215862E2,1.2338375E0,2.3765086E2,6.008289E0,1.916011E0,6.0649976E2,1.5086429E1,1.3258476E0,2.3632501E2,5.8979755E2,1.6702217E1,1.1921695E0,1.38942585E1,1.4820385E1,1.8818321E0],"tree_param":{"num_deleted":"0","num_feature":"18","num_nodes":"25","size_leaf_vector":"1"}},{"base_weights":[-5.2712476E-3,7.316991E-1,-4.2574984E-1,-1.5821075E-1,1.0016632E0,-5.1503253E-1,4.851879E-2,6.914744E-1,-3.4496316E-1,1.1150622E0,-1.6036025E-1,-5.261795E-1,2.8150222E-1,-2.6417357E-1,9.887388E-1,-1.3916555E-1,1.2399014E0,-4.1116396E-1,2.4150859E-1,1.2147589E0,-1.5765832E-1,-1.6825181E-1,-3.6544752E-1,3.4232324E-1,-1.3878949E-1,5.6948805E-1,-4.0883335E-1,1.3655046E0,-1.456388E-1,4.4573832E-1,-9.251264E-2,-5.015109E-1,9.467371E-2,1.2630874E0,-3.7008476E-1,1.3248502E0,-4.97897E-1,-1.3807279E-1,4.2134488E-1,-1.3529088E-1,-1.6629955E-1,4.6083036E-1,-1.072604E-1,-1.6623454E-1,-6.311752E-2,3.3155805E-1,-1.4620201E-1,3.9054906E-1,-1.5002342E-1,-1.4857595E-1,5.618167E-2,5.383397E-1,-9.669811E-2,1.6451049E-1,-1.6788553E-1,2.6634368E-1,-1.6262579E-1],"categories":[],"categories_nodes":[],"categories_segments":[],"categories_sizes":[],"default_left":[0,0,0,0,0,0,0,0,0,0,0,0,0,0,0,0,0,0,0,0,0,0,0,0,0,0,0,0,0,0,0,0,0,0,0,0,0,0,0,0,0,0,0,0,0,0,0,0,0,0,0,0,0,0,0,0,0],"id":11,"left_children":[1,3,5,7,9,11,13,15,17,19,-1,21,23,25,27,-1,29,31,-1,33,-1,-1,35,-1,-1,37,39,41,-1,-1,-1,43,45,47,49,51,53,-1,-1,55,-1,-1,-1,-1,-1,-1,-1,-1,-1,-1,-1,-1,-1,-1,-1,-1,-1],"loss_changes":[2.712525E2,7.655571E1,2.3625076E1,1.2120353E1,4.3122543E1,4.313507E0,2.6489746E1,9.335116E0,5.055174E0,3.7875153E1,0E0,2.374405E0,5.085982E0,8.40172E0,1.3146671E1,0E0,4.1309614E0,2.7592783E0,0E0,1.6928986E1,0E0,0E0,1.968954E1,0E0,0E0,9.617621E0,2.245469E0,5.88818E0,0E0,0E0,0E0,6.568489E-1,6.3219767E0,1.4913391E1,5.9039265E-1,5.567519E0,5.444048E0,0E0,0E0,9.457203E0,0E0,0E0,0E0,0E0,0E0,0E0,0E0,0E0,0E0,0E0,0E0,0E0,0E0,0E0,0E0,0E0,0E0],"parents":[2147483647,0,0,1,1,2,2,3,3,4,4,5,5,6,6,7,7,8,8,9,9,11,11,12,12,13,13,14,14,16,16,17,17,19,19,22,22,25,25,26,26,27,27,31,31,32,32,33,33,34,34,35,35,36,36,39,39],"right_children":[2,4,6,8,10,12,14,16,18,20,-1,22,24,26,28,-1,30,32,-1,34,-1,-1,36,-1,-1,38,40,42,-1,-1,-1,44,46,48,50,52,54,-1,-1,56,-1,-1,-1,-1,-1,-1,-1,-1,-1,-1,-1,-1,-1,-1,-1,-1,-1],"split_conditions":[-8.948958E-1,-2.7445123E-1,4.0040165E-1,-7.2131324E-1,1.3582762E0,1.1639984E0,5.3211945E-1,4.3787572E-1,7.061043E0,-1.6138853E-1,-1.6036025E-1,1.3213289E0,-3.390865E-1,-7.0492476E-1,-7.234942E-1,-1.3916555E-1,8.604129E-1,-1.3499035E-1,2.4150859E-1,9.468547E-1,-1.5765832E-1,-1.6825181E-1,-1.277105E0,3.4232324E-1,-1.3878949E-1,-7.133492E-2,7.059767E-1,4.3787572E-1,-1.456388E-1,4.4573832E-1,-9.251264E-2,5.2223474E-1,5.3089503E-2,8.604129E-1,-4.5478976E-1,-1.0210035E-1,1.3352048E0,-1.3807279E-1,4.2134488E-1,-7.234942E-1,-1.6629955E-1,4.6083036E-1,-1.072604E-1,-1.6623454E-1,-6.311752E-2,3.3155805E-1,-1.4620201E-1,3.9054906E-1,-1.5002342E-1,-1.4857595E-1,5.618167E-2,5.383397E-1,-9.669811E-2,1.6451049E-1,-1.6788553E-1,2.6634368E-1,-1.6262579E-1],"split_indices":[6,9,4,1,1,8,13,4,13,0,0,1,0,1,2,0,4,16,0,9,0,0,8,0,0,11,4,4,0,0,0,4,0,4,1,11,1,0,0,2,0,0,0,0,0,0,0,0,0,0,0,0,0,0,0,0,0],"split_type":[0,0,0,0,0,0,0,0,0,0,0,0,0,0,0,0,0,0,0,0,0,0,0,0,0,0,0,0,0,0,0,0,0,0,0,0,0,0,0,0,0,0,0,0,0,0,0,0,0,0,0,0,0,0,0,0,0],"sum_hessian":[8.73341E2,3.1699884E2,5.5634216E2,7.387877E1,2.4312006E2,4.6812927E2,8.821287E1,1.2825006E1,6.105377E1,2.2666243E2,1.6457632E1,4.6200323E2,6.1260247E0,6.673695E1,2.147592E1,4.1778255E0,8.647181E0,5.8337933E1,2.7158358E0,2.139222E2,1.27402315E1,3.780024E2,8.400084E1,2.5950084E0,3.5310163E0,9.433836E0,5.7303116E1,1.7163204E1,4.3127165E0,7.496901E0,1.1502794E0,4.9504543E1,8.833386E0,2.0778886E2,6.1333275E0,5.4497213E0,7.855112E1,4.4252925E0,5.008543E0,2.056674E1,3.6736374E1,1.57157E1,1.4475032E0,4.1163124E1,8.341419E0,2.8997645E0,5.9336214E0,2.0357722E2,4.2116404E0,5.0995274E0,1.0337999E0,4.1711073E0,1.2786142E0,3.9365456E0,7.461457E1,5.5146804E0,1.505206E1],"tree_param":{"num_deleted":"0","num_feature":"18","num_nodes":"57","size_leaf_vector":"1"}},{"base_weights":[1.13766845E-2,-2.743165E-1,4.3884245E-1,1.1580774E0,-3.0528727E-1,-2.7474767E-1,8.635872E-1,7.706131E-4,1.3684616E0,-1.9325402E-1,-5.352605E-1,-5.093556E-1,6.844721E-1,1.8480787E-2,1.0703926E0,1.1972553E-1,4.4969213E-1,-5.4550856E-1,-3.8671847E-2,-5.515866E-1,-3.619376E-1,3.340986E-2,-5.1796997E-1,-1.3117273E-1,8.568566E-1,4.187247E-1,-3.7217563E-1,1.1751537E0,4.4887763E-1,1.8345863E-2,-1.6638502E-1,-3.1768516E-1,3.5280198E-1,-3.2614234E-1,-1.6733843E-1,-1.577251E-1,4.413374E-1,-5.2667177E-1,-5.790061E-3,-1.1811084E-1,1.0176657E0,-3.6543217E-1,7.3680866E-1,-4.5117965E-1,1.7145559E-1,9.459601E-1,1.4372356E0,6.033332E-1,-2.9571065E-1,-1.3911301E-1,-8.4689455E-3,1.8950471E-1,-8.5866846E-2,-1.3822997E-1,6.0559813E-2,3.156695E-1,-9.7556196E-2,-1.6064665E-1,-3.601057E-2,3.521375E-1,-1.1696511E-1,5.1032074E-2,-1.4638714E-1,3.136805E-1,-1.311693E-1,-1.6109596E-1,-6.486469E-3,3.4562606E-1,1.3650498E-1,5.6679595E-2,4.495142E-1,5.41145E-2,3.3265662E-1,-1.3764556E-1,5.833281E-2],"categories":[],"categories_nodes":[],"categories_segments":[],"categories_sizes":[],"default_left":[0,0,0,0,0,0,0,0,0,0,0,0,0,0,0,0,0,0,0,0,0,0,0,0,0,0,0,0,0,0,0,0,0,0,0,0,0,0,0,0,0,0,0,0,0,0,0,0,0,0,0,0,0,0,0,0,0,0,0,0,0,0,0,0,0,0,0,0,0,0,0,0,0,0,0],"id":12,"left_children":[1,3,5,7,9,11,13,-1,15,17,19,21,23,25,27,-1,-1,29,31,33,35,-1,37,-1,39,41,43,45,47,-1,-1,49,51,53,-1,-1,55,57,-1,-1,59,61,63,65,-1,67,69,71,73,-1,-1,-1,-1,-1,-1,-1,-1,-1,-1,-1,-1,-1,-1,-1,-1,-1,-1,-1,-1,-1,-1,-1,-1,-1,-1],"loss_changes":[1.0627908E2,2.3495346E1,1.05900604E2,2.7311106E0,1.3072712E1,2.9792294E1,3.821675E1,0E0,6.05505E-1,1.8789196E1,2.7280045E-1,6.228676E-1,5.4289417E0,7.0401835E0,1.0915665E1,0E0,0E0,6.156635E-1,2.6453447E1,2.8964996E-2,2.5060203E0,0E0,4.4298744E-1,0E0,5.0248756E0,5.811142E0,1.9585462E0,7.63739E0,3.279994E0,0E0,0E0,5.9607162E0,1.8149902E1,5.512079E-1,0E0,0E0,1.9674656E0,3.035736E-1,0E0,0E0,4.996338E0,5.475882E-1,6.307824E0,7.848277E-1,0E0,7.857834E0,4.903488E0,4.6459265E0,5.132843E-1,0E0,0E0,0E0,0E0,0E0,0E0,0E0,0E0,0E0,0E0,0E0,0E0,0E0,0E0,0E0,0E0,0E0,0E0,0E0,0E0,0E0,0E0,0E0,0E0,0E0,0E0],"parents":[2147483647,0,0,1,1,2,2,3,3,4,4,5,5,6,6,8,8,9,9,10,10,11,11,12,12,13,13,14,14,17,17,18,18,19,19,20,20,22,22,24,24,25,25,26,26,27,27,28,28,31,31,32,32,33,33,36,36,37,37,40,40,41,41,42,42,43,43,45,45,46,46,47,47,48,48],"right_children":[2,4,6,8,10,12,14,-1,16,18,20,22,24,26,28,-1,-1,30,32,34,36,-1,38,-1,40,42,44,46,48,-1,-1,50,52,54,-1,-1,56,58,-1,-1,60,62,64,66,-1,68,70,72,74,-1,-1,-1,-1,-1,-1,-1,-1,-1,-1,-1,-1,-1,-1,-1,-1,-1,-1,-1,-1,-1,-1,-1,-1,-1,-1],"split_conditions":[1.2376634E0,-7.323083E-1,-6.759409E-1,-8.4465265E-1,-1.0484556E-2,3.2436203E-2,-3.8732064E-1,7.706131E-4,-6.910831E-1,-1.03911094E-1,1.4323363E0,-1.5678208E0,-2.914141E-1,-2.5368286E-2,4.0040165E-1,1.1972553E-1,4.4969213E-1,-3.574892E-1,-1.7771024E-1,-7.12443E-1,-4.9430424E-1,3.340986E-2,-3.3069998E-2,-1.3117273E-1,-1.4113433E0,-1.2448251E0,1.1174778E0,1.5949488E0,4.2498994E-1,1.8345863E-2,-1.6638502E-1,-6.1230145E-2,7.122146E-1,-1.71742E-1,-1.6733843E-1,-1.577251E-1,-3.8283724E-2,9.393686E-1,-5.790061E-3,-1.1811084E-1,2.3933423E0,-1.7425401E0,3.8116643E-1,-3.1403862E-2,1.7145559E-1,-2.535686E-2,-1.3462132E0,-2.5740901E-2,9.728297E-1,-1.3911301E-1,-8.4689455E-3,1.8950471E-1,-8.5866846E-2,-1.3822997E-1,6.0559813E-2,3.156695E-1,-9.7556196E-2,-1.6064665E-1,-3.601057E-2,3.521375E-1,-1.1696511E-1,5.1032074E-2,-1.4638714E-1,3.136805E-1,-1.311693E-1,-1.6109596E-1,-6.486469E-3,3.4562606E-1,1.3650498E-1,5.6679595E-2,4.495142E-1,5.41145E-2,3.3265662E-1,-1.3764556E-1,5.833281E-2],"split_indices":[2,1,1,6,11,4,6,0,13,11,1,8,16,15,4,0,0,9,6,5,6,0,4,0,6,6,9,1,5,0,0,13,9,0,0,0,10,9,0,0,4,8,9,12,0,15,9,17,9,0,0,0,0,0,0,0,0,0,0,0,0,0,0,0,0,0,0,0,0,0,0,0,0,0,0],"split_type":[0,0,0,0,0,0,0,0,0,0,0,0,0,0,0,0,0,0,0,0,0,0,0,0,0,0,0,0,0,0,0,0,0,0,0,0,0,0,0,0,0,0,0,0,0,0,0,0,0,0,0,0,0,0,0,0,0,0,0,0,0,0,0,0,0,0,0,0,0,0,0,0,0,0,0],"sum_hessian":[8.6826953E2,5.2065344E2,3.476161E2,1.0248949E1,5.1040448E2,1.298371E2,2.1777898E2,1.7345207E0,8.514429E0,3.444455E2,1.6595897E2,1.0469868E2,2.5138424E1,4.3029415E1,1.7474957E2,1.4918181E0,7.0226107E0,1.04282524E2,2.40163E2,1.4967769E2,1.6281288E1,1.2698482E0,1.0342883E2,3.1439762E0,2.1994448E1,2.1218412E1,2.1811003E1,1.4878065E2,2.5968912E1,1.4579774E0,1.0282455E2,1.4033276E2,9.983023E1,5.4459405E0,1.4423175E2,1.3810409E1,2.470879E0,1.01599754E2,1.829078E0,2.3410008E0,1.9653446E1,6.08024E0,1.5138173E1,2.0607674E1,1.2033285E0,8.182936E1,6.6951294E1,2.1664574E1,4.304337E0,9.287636E1,4.74564E1,6.9507545E1,3.0322681E1,4.440989E0,1.0049515E0,1.1676061E0,1.303273E0,9.91334E1,2.466355E0,1.7840631E1,1.812815E0,1.0597738E0,5.020466E0,1.2072336E1,3.065837E0,1.69681E1,3.6395738E0,5.6683598E1,2.5145763E1,3.317287E0,6.3634007E1,1.2534363E1,9.130212E0,3.2775867E0,1.0267506E0],"tree_param":{"num_deleted":"0","num_feature":"18","num_nodes":"75","size_leaf_vector":"1"}},{"base_weights":[2.9084707E-2,-7.314869E-2,9.503015E-1,1.2918044E0,-1.0358605E-1,1.7420403E0,6.953369E-1,1.4863281E0,-1.995477E-2,-3.1958058E-1,6.375692E-2,1.0316333E0,6.238402E-1,1.4616278E-1,1.0103483E0,1.3941273E-1,1.5530341E0,-3.5574213E-1,4.4011357E-1,2.7709928E-1,-2.8979602E-1,3.886947E-1,-4.8128855E-3,1.3467823E0,-1.3477232E-1,7.9105264E-1,4.867316E-1,4.892118E-1,1.3825445E-1,-3.8972896E-2,-4.4681203E-1,-2.3985691E-1,4.845924E-1,-4.0597442E-1,4.9137834E-1,5.3804547E-1,2.587164E-2,9.023992E-1,-2.9105362E-1,5.0767932E-2,8.963756E-1,-9.8015174E-2,8.105637E-2,-8.564186E-2,-1.5170711E-1,2.1309169E-1,-1.0301396E-1,2.957798E-1,7.892388E-2,-5.255425E-3,-1.4265554E-1,-7.494529E-2,3.3855066E-1,3.5359365E-1,5.5420075E-2,-1.5533051E-1,-1.6050112E-2,-1.3857862E-1,2.2824906E-1,4.2627802E-1,1.656774E-1],"categories":[],"categories_nodes":[],"categories_segments":[],"categories_sizes":[],"default_left":[0,0,0,0,0,0,0,0,0,0,0,0,0,0,0,0,0,0,0,0,0,0,0,0,0,0,0,0,0,0,0,0,0,0,0,0,0,0,0,0,0,0,0,0,0,0,0,0,0,0,0,0,0,0,0,0,0,0,0,0,0],"id":13,"left_children":[1,3,5,7,9,11,13,15,-1,17,19,21,-1,23,25,-1,27,29,-1,31,33,-1,-1,35,37,39,-1,-1,-1,41,43,45,47,49,51,-1,-1,53,55,57,59,-1,-1,-1,-1,-1,-1,-1,-1,-1,-1,-1,-1,-1,-1,-1,-1,-1,-1,-1,-1],"loss_changes":[8.100346E1,3.2308693E1,1.6131752E1,4.5820084E0,2.7435791E1,2.712082E0,1.1382626E1,2.9263687E-1,0E0,2.192464E1,3.237893E1,2.3746204E0,0E0,8.77059E0,4.3791504E0,0E0,3.975563E-1,9.37289E0,0E0,2.88169E1,1.4868992E1,0E0,0E0,2.6154957E0,3.7548728E0,2.5282593E0,0E0,0E0,0E0,6.651781E0,2.2563858E0,7.8478503E0,2.0981102E1,3.8077354E0,1.0377934E1,0E0,0E0,3.8994002E-1,1.0214167E0,2.2341332E0,4.4208546E0,0E0,0E0,0E0,0E0,0E0,0E0,0E0,0E0,0E0,0E0,0E0,0E0,0E0,0E0,0E0,0E0,0E0,0E0,0E0,0E0],"parents":[2147483647,0,0,1,1,2,2,3,3,4,4,5,5,6,6,7,7,9,9,10,10,11,11,13,13,14,14,16,16,17,17,19,19,20,20,23,23,24,24,25,25,29,29,30,30,31,31,32,32,33,33,34,34,37,37,38,38,39,39,40,40],"right_children":[2,4,6,8,10,12,14,16,-1,18,20,22,-1,24,26,-1,28,30,-1,32,34,-1,-1,36,38,40,-1,-1,-1,42,44,46,48,50,52,-1,-1,54,56,58,60,-1,-1,-1,-1,-1,-1,-1,-1,-1,-1,-1,-1,-1,-1,-1,-1,-1,-1,-1,-1],"split_conditions":[8.742519E-1,-1.807991E0,1.8663314E-1,-1.538884E0,-6.768046E-1,-4.1681382E-1,1.9643819E0,-1.5606889E-1,-1.995477E-2,1.3714753E0,-2.763571E-1,-6.759409E-1,6.238402E-1,-3.325976E-1,9.488894E-1,1.3941273E-1,-5.501014E-2,-7.181689E-1,4.4011357E-1,-4.496428E-1,1.2090267E0,3.886947E-1,-4.8128855E-3,3.0815154E-1,-9.338108E-1,-8.6103044E-2,4.867316E-1,4.892118E-1,1.3825445E-1,-5.815563E-1,-6.3867223E-1,-6.9456714E-1,-6.3867223E-1,-1.9630406E-2,-4.1073065E-2,5.3804547E-1,2.587164E-2,-1.6491053E-1,3.398378E-2,-2.0766704E-1,-7.076734E-1,-9.8015174E-2,8.105637E-2,-8.564186E-2,-1.5170711E-1,2.1309169E-1,-1.0301396E-1,2.957798E-1,7.892388E-2,-5.255425E-3,-1.4265554E-1,-7.494529E-2,3.3855066E-1,3.5359365E-1,5.5420075E-2,-1.5533051E-1,-1.6050112E-2,-1.3857862E-1,2.2824906E-1,4.2627802E-1,1.656774E-1],"split_indices":[4,8,8,6,1,9,4,14,0,9,16,1,0,0,5,0,11,1,0,10,2,0,0,9,9,11,0,0,0,13,4,13,4,11,11,0,0,14,9,5,9,0,0,0,0,0,0,0,0,0,0,0,0,0,0,0,0,0,0,0,0],"split_type":[0,0,0,0,0,0,0,0,0,0,0,0,0,0,0,0,0,0,0,0,0,0,0,0,0,0,0,0,0,0,0,0,0,0,0,0,0,0,0,0,0,0,0,0,0,0,0,0,0,0,0,0,0,0,0,0,0,0,0,0,0],"sum_hessian":[8.58362E2,7.7344806E2,8.491395E1,1.5967104E1,7.5748096E2,1.9263315E1,6.5650635E1,1.3884481E1,2.0826225E0,3.302752E2,4.2720572E2,7.5097966E0,1.1753518E1,2.4464508E1,4.1186123E1,1.3392985E0,1.2545183E1,3.24508E2,5.7672E0,2.6656827E2,1.6063748E2,5.809186E0,1.7006103E0,3.9195933E0,2.0544914E1,3.2010128E1,9.175998E0,1.1251925E1,1.2932576E0,7.278104E1,2.5172696E2,7.630446E1,1.902638E2,1.402582E2,2.0379284E1,2.5818639E0,1.3377295E0,2.0651577E0,1.8479757E1,4.1715474E0,2.783858E1,3.7666767E1,3.511427E1,6.88665E1,1.8286046E2,6.920927E0,6.938354E1,5.724739E1,1.330164E2,2.1487282E1,1.1877091E2,9.701256E0,1.0678028E1,1.0273675E0,1.0377902E0,8.852025E0,9.627732E0,2.6253679E0,1.5461795E0,9.78847E0,1.805011E1],"tree_param":{"num_deleted":"0","num_feature":"18","num_nodes":"61","size_leaf_vector":"1"}},{"base_weights":[4.2709797E-3,-4.5549506E-1,4.0092802E-1,-5.149671E-1,-6.7124166E-2,3.3992734E-2,7.545954E-1,-1.8666242E-1,-5.229806E-1,4.8072457E-1,-4.496658E-1,5.684767E-1,-2.2576687E-1,7.762796E-1,-1.4891292E-1,-1.4340185E-1,1.8157043E-1,-5.258475E-1,2.4159903E-2,6.895862E-1,-1.3409826E-1,1.4547159E-1,-1.616575E-1,8.071276E-1,-1.516207E-1,1.320238E-1,-3.7690562E-1,4.6053535E-1,8.7324256E-1,-3.2717818E-1,-5.3414595E-1,8.757102E-1,5.100341E-2,2.437606E-1,-1.1954159E-1,-6.640491E-2,9.1953987E-1,-1.5847097E-1,6.635271E-1,-1.6085044E-1,8.653732E-1,-4.6597305E-1,1.3848113E-1,8.3017755E-1,1.2135827E-1,-1.4723419E-1,9.078985E-1,1.835598E-1,-1.5286611E-1,-1.6292603E-1,-1.2104852E-1,-1.02922894E-1,3.0550116E-1,-1.3849859E-1,2.575685E-1,1.4091015E-1,-1.341573E-1,2.8698003E-1,-1.0231217E-1,-9.84173E-2,2.8028646E-1,2.939759E-1,-1.03458054E-1,-1.5615335E-1,1.2801802E-1,4.3008617E-1,-1.5363759E-1,-1.3441001E-1,2.8065094E-1,-4.001173E-2,2.5443825E-1,3.1283438E-1,1.697202E-1],"categories":[],"categories_nodes":[],"categories_segments":[],"categories_sizes":[],"default_left":[0,0,0,0,0,0,0,0,0,0,0,0,0,0,0,0,0,0,0,0,0,0,0,0,0,0,0,0,0,0,0,0,0,0,0,0,0,0,0,0,0,0,0,0,0,0,0,0,0,0,0,0,0,0,0,0,0,0,0,0,0,0,0,0,0,0,0,0,0,0,0,0,0],"id":14,"left_children":[1,3,5,7,9,11,13,15,17,19,21,23,25,27,-1,-1,-1,29,-1,31,-1,33,-1,35,37,39,41,43,45,47,49,51,53,-1,-1,55,57,-1,59,-1,61,63,65,67,69,-1,71,-1,-1,-1,-1,-1,-1,-1,-1,-1,-1,-1,-1,-1,-1,-1,-1,-1,-1,-1,-1,-1,-1,-1,-1,-1,-1],"loss_changes":[1.4730876E2,8.606506E0,5.624784E1,7.555313E-1,1.0869165E1,2.9821499E1,6.373749E0,2.4307575E0,5.891113E-1,4.4515715E0,1.6946306E0,1.2191723E1,7.8712645E0,6.253296E0,0E0,0E0,0E0,3.4397125E-1,0E0,2.0765648E0,0E0,2.049427E0,0E0,5.25634E0,5.9758387E0,2.1875134E1,4.7442045E0,6.567891E0,8.254768E0,2.9143195E0,1.3182068E-1,2.7408485E0,2.5035253E0,0E0,0E0,1.6318641E0,2.519268E0,0E0,1.9801729E0,0E0,3.2788105E0,4.4651985E0,1.4041445E1,3.8226318E0,5.4650927E0,0E0,6.861603E0,0E0,0E0,0E0,0E0,0E0,0E0,0E0,0E0,0E0,0E0,0E0,0E0,0E0,0E0,0E0,0E0,0E0,0E0,0E0,0E0,0E0,0E0,0E0,0E0,0E0,0E0],"parents":[2147483647,0,0,1,1,2,2,3,3,4,4,5,5,6,6,7,7,8,8,9,9,10,10,11,11,12,12,13,13,17,17,19,19,21,21,23,23,24,24,25,25,26,26,27,27,28,28,29,29,30,30,31,31,32,32,35,35,36,36,38,38,40,40,41,41,42,42,43,43,44,44,46,46],"right_children":[2,4,6,8,10,12,14,16,18,20,22,24,26,28,-1,-1,-1,30,-1,32,-1,34,-1,36,38,40,42,44,46,48,50,52,54,-1,-1,56,58,-1,60,-1,62,64,66,68,70,-1,72,-1,-1,-1,-1,-1,-1,-1,-1,-1,-1,-1,-1,-1,-1,-1,-1,-1,-1,-1,-1,-1,-1,-1,-1,-1,-1],"split_conditions":[6.4537853E-1,8.43014E-2,-6.2323105E-1,-1.3462132E0,-1.6572429E-1,-6.457666E-1,4.0803223E0,1.2752094E0,6.2701255E-1,1.9538878E-1,-1.2265792E0,-1.3249163E-1,-1.8777005E-1,1.0160586E0,-1.4891292E-1,-1.4340185E-1,1.8157043E-1,-6.910831E-1,2.4159903E-2,8.1352085E-2,-1.3409826E-1,-7.234942E-1,-1.616575E-1,-2.8803727E-1,-4.2422593E-1,-2.5301216E-2,5.4704493E-1,-6.2465435E-1,-7.573337E-1,-4.560036E-1,3.9632803E-1,-2.9280972E-1,4.8712036E-1,2.437606E-1,-1.1954159E-1,-7.875066E-2,-2.3971172E-1,-1.5847097E-1,-7.181689E-1,-1.6085044E-1,1.8126155E-1,1.9016739E0,-4.9698594E-1,-3.2152706E-1,-5.740432E-2,-1.4723419E-1,-3.605851E-1,1.835598E-1,-1.5286611E-1,-1.6292603E-1,-1.2104852E-1,-1.02922894E-1,3.0550116E-1,-1.3849859E-1,2.575685E-1,1.4091015E-1,-1.341573E-1,2.8698003E-1,-1.0231217E-1,-9.84173E-2,2.8028646E-1,2.939759E-1,-1.03458054E-1,-1.5615335E-1,1.2801802E-1,4.3008617E-1,-1.5363759E-1,-1.3441001E-1,2.8065094E-1,-4.001173E-2,2.5443825E-1,3.1283438E-1,1.697202E-1],"split_indices":[8,4,1,9,14,5,4,6,8,9,9,13,4,1,0,0,0,13,0,13,0,2,0,16,10,17,9,9,13,10,8,16,13,0,0,11,0,0,1,0,9,4,13,0,16,0,2,0,0,0,0,0,0,0,0,0,0,0,0,0,0,0,0,0,0,0,0,0,0,0,0,0,0],"split_type":[0,0,0,0,0,0,0,0,0,0,0,0,0,0,0,0,0,0,0,0,0,0,0,0,0,0,0,0,0,0,0,0,0,0,0,0,0,0,0,0,0,0,0,0,0,0,0,0,0,0,0,0,0,0,0,0,0,0,0,0,0,0,0,0,0,0,0,0,0,0,0,0,0],"sum_hessian":[8.0574774E2,3.731178E2,4.3262997E2,3.2328635E2,4.983145E1,2.128701E2,2.1975986E2,8.281836E0,3.150045E2,2.0383297E1,2.9448156E1,6.923108E1,1.4363902E2,2.1638846E2,3.371401E0,6.3441596E0,1.9376757E0,3.1364325E2,1.3612342E0,1.6847115E1,3.5361829E0,3.7559004E0,2.5692255E1,5.1907352E1,1.7323723E1,4.2694603E1,1.0094443E2,5.218991E1,1.6419855E2,1.4196553E1,2.9944672E2,1.2757443E1,4.0896707E0,1.4652317E0,2.2906687E0,5.964868E0,4.5942486E1,1.2089902E1,5.2338214E0,2.2480425E1,2.021418E1,8.6151825E1,1.4792597E1,2.4280691E1,2.790922E1,3.7423382E0,1.604562E2,1.9257847E0,1.2270769E1,2.7731262E2,2.2134096E1,1.1892831E0,1.156816E1,2.76358E0,1.3260907E0,2.3802428E0,3.5846252E0,4.486464E1,1.0778465E0,1.0772158E0,4.1566057E0,1.8640223E1,1.5739579E0,8.158448E1,4.5673485E0,4.5438333E0,1.0248763E1,1.6007302E0,2.267996E1,2.1270464E1,6.638756E0,1.1361936E2,4.683685E1],"tree_param":{"num_deleted":"0","num_feature":"18","num_nodes":"73","size_leaf_vector":"1"}},{"base_weights":[-1.531134E-2,-4.5792025E-1,4.6423492E-1,-5.04207E-1,1.2984535E-2,8.894401E-1,-5.1523626E-1,-1.6452669E-1,-3.8588783E-1,6.4796096E-1,-1.5844783E-1,9.542613E-1,-2.620217E-1,2.5053786E-2,-5.391477E-1,-1.6210967E-1,1.8310657E-1,-2.931823E-1,9.5112926E-1,-1.1906935E-1,9.6236306E-1,-1.5035951E-1,2.0387046E-1,2.1729976E-1,-1.2664789E-1,-1.6417226E-1,-1.9066754E-1,-2.4826166E-1,6.9388586E-1,5.6907143E-2,-1.375833E-1,-1.1289323E-1,1.1603186E0,9.7699106E-1,2.0634544E-1,-1.2570095E-1,2.892056E-1,-1.138509E-1,5.2511875E-2,-1.3305463E-1,1.5920442E-1,-1.1830354E-1,3.0849513E-1,3.6687797E-1,1.16554566E-1,2.9930133E-1,2.0952936E-1,2.3357402E-1,-1.2202018E-1],"categories":[],"categories_nodes":[],"categories_segments":[],"categories_sizes":[],"default_left":[0,0,0,0,0,0,0,0,0,0,0,0,0,0,0,0,0,0,0,0,0,0,0,0,0,0,0,0,0,0,0,0,0,0,0,0,0,0,0,0,0,0,0,0,0,0,0,0,0],"id":15,"left_children":[1,3,5,7,9,11,13,-1,15,17,-1,19,21,23,25,-1,27,29,31,-1,33,-1,35,-1,-1,-1,37,39,41,-1,-1,-1,43,45,47,-1,-1,-1,-1,-1,-1,-1,-1,-1,-1,-1,-1,-1,-1],"loss_changes":[1.6881908E2,9.021622E0,1.594576E2,1.758606E0,1.3396276E1,2.0146912E1,1.5146885E0,0E0,9.400663E0,5.3943973E0,0E0,3.1469269E0,1.7726912E0,2.1446788E0,2.096138E-1,0E0,5.3155217E0,4.9699342E-1,4.267662E0,0E0,2.5782928E0,0E0,3.1483557E0,0E0,0E0,0E0,3.468973E-1,2.272138E0,4.391093E0,0E0,0E0,0E0,1.1260033E-1,7.2221375E-1,2.4353454E0,0E0,0E0,0E0,0E0,0E0,0E0,0E0,0E0,0E0,0E0,0E0,0E0,0E0,0E0],"parents":[2147483647,0,0,1,1,2,2,3,3,4,4,5,5,6,6,8,8,9,9,11,11,12,12,13,13,14,14,16,16,17,17,18,18,20,20,22,22,26,26,27,27,28,28,32,32,33,33,34,34],"right_children":[2,4,6,8,10,12,14,-1,16,18,-1,20,22,24,26,-1,28,30,32,-1,34,-1,36,-1,-1,-1,38,40,42,-1,-1,-1,44,46,48,-1,-1,-1,-1,-1,-1,-1,-1,-1,-1,-1,-1,-1,-1],"split_conditions":[1.2090267E0,1.780387E0,-6.771472E-1,7.258201E-1,1.9016739E0,-9.589388E-2,-6.759409E-1,-1.6452669E-1,-1.6098733E-1,-6.726553E-1,-1.5844783E-1,-4.5970693E-1,1.1183963E-1,-1.4120421E-1,1.7306688E0,-1.6210967E-1,-2.5407255E-2,-2.905058E-1,-7.12443E-1,-1.1906935E-1,9.150403E-1,-1.5035951E-1,-2.0322977E-1,2.1729976E-1,-1.2664789E-1,-1.6417226E-1,-3.506595E-1,1.9127918E0,-3.2516375E-1,5.6907143E-2,-1.375833E-1,-1.1289323E-1,-4.4092473E-1,5.1887417E-1,-7.0367235E-1,-1.2570095E-1,2.892056E-1,-1.138509E-1,5.2511875E-2,-1.3305463E-1,1.5920442E-1,-1.1830354E-1,3.0849513E-1,3.6687797E-1,1.16554566E-1,2.9930133E-1,2.0952936E-1,2.3357402E-1,-1.2202018E-1],"split_indices":[2,4,1,9,4,4,1,0,14,1,0,4,9,4,1,0,15,16,5,0,9,0,6,0,0,0,10,5,0,0,0,0,6,9,1,0,0,0,0,0,0,0,0,0,0,0,0,0,0],"split_type":[0,0,0,0,0,0,0,0,0,0,0,0,0,0,0,0,0,0,0,0,0,0,0,0,0,0,0,0,0,0,0,0,0,0,0,0,0,0,0,0,0,0,0,0,0,0,0,0,0],"sum_hessian":[7.9337146E2,4.1259863E2,3.8077286E2,3.7560812E2,3.6990482E1,2.6557437E2,1.1519846E2,2.7078287E2,1.0482527E2,1.6928844E1,2.0061638E1,2.5158287E2,1.3991509E1,4.880196E0,1.1031827E2,8.248227E1,2.2343002E1,4.132626E0,1.2796219E1,1.21351E0,2.5036935E2,9.19517E0,4.7963386E0,1.6619127E0,3.2182832E0,1.07256935E2,3.0613308E0,1.2391754E1,9.951248E0,1.0171088E0,3.1155174E0,1.6332575E0,1.1162961E1,2.4533026E2,5.0391064E0,2.8828707E0,1.9134678E0,1.9939941E0,1.0673368E0,1.0252444E1,2.13931E0,2.2971685E0,7.65408E0,9.784728E0,1.3782325E0,2.2597269E2,1.9357565E1,2.4667485E0,2.5723577E0],"tree_param":{"num_deleted":"0","num_feature":"18","num_nodes":"49","size_leaf_vector":"1"}},{"base_weights":[-1.5786115E-2,-4.124916E-1,9.2452294E-1,-4.7294408E-1,8.8347256E-1,9.7006595E-1,-1.4451487E-1,-1.9581042E-1,-5.4166096E-1,1.0442929E0,-1.1872385E-1,-1.2581713E-1,9.895568E-1,-3.7741575E-1,4.4017136E-1,-4.062362E-1,-1.6445982E-1,3.2383913E-1,9.414677E-2,9.934509E-1,3.411599E-2,5.7896143E-1,-4.614516E-1,-1.4742708E-1,6.689586E-1,2.5273383E-1,-1.5858255E-1,9.982907E-1,6.861905E-2,-7.598272E-2,4.773292E-1,7.932143E-3,-1.5228438E-1,2.9781675E-1,-5.934381E-2,9.9412605E-2,3.0033746E-1],"categories":[],"categories_nodes":[],"categories_segments":[],"categories_sizes":[],"default_left":[0,0,0,0,0,0,0,0,0,0,0,0,0,0,0,0,0,0,0,0,0,0,0,0,0,0,0,0,0,0,0,0,0,0,0,0,0],"id":16,"left_children":[1,3,5,7,9,11,-1,13,15,17,-1,-1,19,21,23,25,-1,-1,-1,27,-1,29,31,-1,33,-1,-1,35,-1,-1,-1,-1,-1,-1,-1,-1,-1],"loss_changes":[2.954776E2,4.4059967E1,1.5519791E1,1.0042E1,5.592476E0,6.5893707E0,0E0,1.2575659E1,1.5489197E-1,2.4285698E-1,0E0,0E0,6.548767E-1,7.027607E0,5.5138254E0,4.0365305E0,0E0,0E0,0E0,6.007538E-1,0E0,6.4996176E0,1.7674503E0,0E0,5.7961674E0,0E0,0E0,8.842468E-2,0E0,0E0,0E0,0E0,0E0,0E0,0E0,0E0,0E0],"parents":[2147483647,0,0,1,1,2,2,3,3,4,4,5,5,7,7,8,8,9,9,12,12,13,13,14,14,15,15,19,19,21,21,22,22,24,24,27,27],"right_children":[2,4,6,8,10,12,-1,14,16,18,-1,-1,20,22,24,26,-1,-1,-1,28,-1,30,32,-1,34,-1,-1,36,-1,-1,-1,-1,-1,-1,-1,-1,-1],"split_conditions":[-1.1365129E-1,2.6814904E0,-4.5970693E-1,-6.3867223E-1,-6.3867223E-1,-2.6113536E-2,-1.4451487E-1,-1.570969E-1,-1.4120294E0,-3.677333E-1,-1.1872385E-1,-1.2581713E-1,7.8504056E-1,-1.4120294E0,1.1183963E-1,-2.5393851E-2,-1.6445982E-1,3.2383913E-1,9.414677E-2,1.2918383E0,3.411599E-2,-2.5489809E-2,-6.8073964E-1,-1.4742708E-1,9.7994536E-1,2.5273383E-1,-1.5858255E-1,-1.7866848E-2,6.861905E-2,-7.598272E-2,4.773292E-1,7.932143E-3,-1.5228438E-1,2.9781675E-1,-5.934381E-2,9.9412605E-2,3.0033746E-1],"split_indices":[14,9,4,4,4,11,0,14,5,10,0,0,8,5,9,15,0,0,0,13,0,17,9,0,5,0,0,0,0,0,0,0,0,0,0,0,0],"split_type":[0,0,0,0,0,0,0,0,0,0,0,0,0,0,0,0,0,0,0,0,0,0,0,0,0,0,0,0,0,0,0,0,0,0,0,0,0],"sum_hessian":[7.900882E2,5.5605597E2,2.3403223E2,5.3188055E2,2.4175426E1,2.2699098E2,7.041247E0,1.0644399E2,4.2543655E2,2.1638706E1,2.536719E0,2.8562765E0,2.241347E2,8.311653E1,2.3327457E1,2.2502033E1,4.029345E2,2.0188885E1,1.4498215E0,2.230089E2,1.125811E0,6.237757E0,7.687878E1,4.3730326E0,1.8954424E1,1.4832023E0,2.1018831E1,2.2130284E2,1.7060467E0,3.8345375E0,2.4032197E0,6.682226E0,7.019655E1,1.3694011E1,5.260414E0,1.4354606E0,2.1986739E2],"tree_param":{"num_deleted":"0","num_feature":"18","num_nodes":"37","size_leaf_vector":"1"}},{"base_weights":[-2.3848096E-2,9.5432E-1,-5.3329873E-1,9.8692185E-1,-3.5170805E-1,-5.38258E-1,-1.4839223E-2,-1.11870974E-1,9.958285E-1,-1.4182544E-1,6.0765304E-2,-5.45483E-1,-3.5782334E-1,-1.2806807E-1,2.0640324E-1,-2.4128458E-3,1.0014497E0,-1.6480193E-1,-3.844598E-1,3.086831E-1,-1.5795195E-1,3.7551075E-2,3.0136257E-1,-1.5332793E-1,1.0131281E-1],"categories":[],"categories_nodes":[],"categories_segments":[],"categories_sizes":[],"default_left":[0,0,0,0,0,0,0,0,0,0,0,0,0,0,0,0,0,0,0,0,0,0,0,0,0],"id":17,"left_children":[1,3,5,7,9,11,13,-1,15,-1,-1,17,19,-1,-1,-1,21,-1,23,-1,-1,-1,-1,-1,-1],"loss_changes":[3.9336066E2,1.18576355E1,1.3264923E0,3.5689087E0,5.869274E-1,4.7496033E-1,2.0156932E0,0E0,1.4897156E0,0E0,0E0,9.4558716E-2,5.851448E0,0E0,0E0,0E0,5.817566E-1,0E0,1.5305169E0,0E0,0E0,0E0,0E0,0E0,0E0],"parents":[2147483647,0,0,1,1,2,2,3,3,4,4,5,5,6,6,8,8,11,11,12,12,16,16,18,18],"right_children":[2,4,6,8,10,12,14,-1,16,-1,-1,18,20,-1,-1,-1,22,-1,24,-1,-1,-1,-1,-1,-1],"split_conditions":[-2.9269958E-1,-1.6995811E-1,-2.5298852E-2,-6.3867223E-1,-4.2422593E-1,1.6395527E0,1.1210365E0,-1.11870974E-1,-3.2024562E-2,-1.4182544E-1,6.0765304E-2,1.5697826E0,-3.1423442E-2,-1.2806807E-1,2.0640324E-1,-2.4128458E-3,-9.608083E-1,-1.6480193E-1,2.4683914E-1,3.086831E-1,-1.5795195E-1,3.7551075E-2,3.0136257E-1,-1.5332793E-1,1.0131281E-1],"split_indices":[16,4,15,4,10,5,6,0,9,0,0,6,12,0,0,0,6,0,13,0,0,0,0,0,0],"split_type":[0,0,0,0,0,0,0,0,0,0,0,0,0,0,0,0,0,0,0,0,0,0,0,0,0],"sum_hessian":[7.873392E2,2.693335E2,5.180057E2,2.6301236E2,6.321143E0,5.130598E2,4.94583E0,1.445541E0,2.6156683E2,5.3088193E0,1.0123242E0,4.9136145E2,2.1698387E1,3.3654306E0,1.5803995E0,1.4541115E0,2.601127E2,4.7751285E2,1.3848618E1,1.8000525E0,1.9898335E1,1.0605004E0,2.5905222E2,1.203121E1,1.8174076E0],"tree_param":{"num_deleted":"0","num_feature":"18","num_nodes":"25","size_leaf_vector":"1"}},{"base_weights":[-8.44018E-3,5.495039E-1,-4.0135363E-1,6.6627127E-1,-4.8521286E-1,-4.95617E-1,3.669435E-2,7.612206E-1,-2.7958873E-1,-5.379851E-2,-1.6054547E-1,-5.0774E-1,2.4258304E-1,3.944869E-1,-1.6413066E-1,-1.554531E-1,8.22906E-1,-4.3769184E-1,6.846545E-1,1.7416131E-1,-1.2286844E-1,-1.6446625E-1,-3.375871E-1,2.604512E-1,-1.3016178E-1,7.8104675E-1,-1.561024E-1,5.460617E-1,9.644877E-1,-1.5985703E-1,9.4655976E-2,4.176738E-1,-1.03889756E-1,-1.615541E-1,6.7579925E-1,-1.4962618E-1,1.0545689E0,2.2089748E-1,-6.602089E-2,2.99062E-1,-1.4550862E-1,3.9238307E-1,-1.4109166E-1,-4.0069786E-3,3.5020053E-1],"categories":[],"categories_nodes":[],"categories_segments":[],"categories_sizes":[],"default_left":[0,0,0,0,0,0,0,0,0,0,0,0,0,0,0,0,0,0,0,0,0,0,0,0,0,0,0,0,0,0,0,0,0,0,0,0,0,0,0,0,0,0,0,0,0],"id":18,"left_children":[1,3,5,7,9,11,13,15,17,19,-1,21,23,25,-1,-1,27,29,31,-1,-1,-1,33,-1,-1,35,-1,37,39,-1,-1,-1,-1,-1,41,-1,43,-1,-1,-1,-1,-1,-1,-1,-1],"loss_changes":[1.760748E2,4.042311E1,1.9477966E1,2.703505E1,7.0876884E-1,3.5944748E0,1.784215E1,2.186763E1,4.564758E0,1.2901903E0,0E0,2.4457245E0,3.3151813E0,1.9114176E1,0E0,0E0,9.647522E0,1.9347324E0,3.641611E0,0E0,0E0,0E0,1.5840173E1,0E0,0E0,1.3683598E1,0E0,1.3300827E1,8.484436E0,0E0,0E0,0E0,0E0,0E0,1.0048153E1,0E0,3.7836914E0,0E0,0E0,0E0,0E0,0E0,0E0,0E0,0E0],"parents":[2147483647,0,0,1,1,2,2,3,3,4,4,5,5,6,6,7,7,8,8,9,9,11,11,12,12,13,13,16,16,17,17,18,18,22,22,25,25,27,27,28,28,34,34,36,36],"right_children":[2,4,6,8,10,12,14,16,18,20,-1,22,24,26,-1,-1,28,30,32,-1,-1,-1,34,-1,-1,36,-1,38,40,-1,-1,-1,-1,-1,42,-1,44,-1,-1,-1,-1,-1,-1,-1,-1],"split_conditions":[-8.948958E-1,1.3582762E0,4.0040165E-1,-1.71742E-1,-1.693976E-1,1.1639984E0,-6.2323105E-1,-6.8073964E-1,-1.6025761E-2,-1.5576072E0,-1.6054547E-1,8.699655E-1,-3.390865E-1,8.604129E-1,-1.6413066E-1,-1.554531E-1,1.3671002E0,5.1073074E-1,1.6331375E-1,1.7416131E-1,-1.2286844E-1,-1.6446625E-1,1.1964456E0,2.604512E-1,-1.3016178E-1,4.9239612E-1,-1.561024E-1,-2.8516874E-1,2.0235819E-1,-1.5985703E-1,9.4655976E-2,4.176738E-1,-1.03889756E-1,-1.615541E-1,-2.403052E-1,-1.4962618E-1,-3.2010582E-1,2.2089748E-1,-6.602089E-2,2.99062E-1,-1.4550862E-1,3.9238307E-1,-1.4109166E-1,-4.0069786E-3,3.5020053E-1],"split_indices":[6,1,4,0,4,8,1,9,1,6,0,9,0,4,0,0,8,9,11,0,0,0,1,0,0,8,0,16,2,0,0,0,0,0,13,0,5,0,0,0,0,0,0,0,0],"split_type":[0,0,0,0,0,0,0,0,0,0,0,0,0,0,0,0,0,0,0,0,0,0,0,0,0,0,0,0,0,0,0,0,0,0,0,0,0,0,0,0,0,0,0,0,0],"sum_hessian":[8.011679E2,3.30894E2,4.7027393E2,2.9765936E2,3.3234646E1,3.8688818E2,8.338573E1,2.7068234E2,2.6977001E1,3.6634874E0,2.957116E1,3.8094434E2,5.943831E0,5.1901207E1,3.1484524E1,1.2110112E1,2.5857224E2,2.3645947E1,3.3310544E0,1.0893438E0,2.574144E0,3.0593744E2,7.500693E1,2.9407802E0,3.003051E0,3.658745E1,1.5313757E1,8.913578E1,1.6943646E2,2.1253248E1,2.3926992E0,1.7674954E0,1.5635589E0,6.298695E1,1.2019977E1,6.297625E0,3.0289824E1,7.1434456E1,1.7701326E1,1.6603902E2,3.397441E0,7.656022E0,4.3639545E0,2.977132E0,2.7312693E1],"tree_param":{"num_deleted":"0","num_feature":"18","num_nodes":"45","size_leaf_vector":"1"}},{"base_weights":[1.4467948E-2,-2.3837817E-1,3.437732E-1,8.5664177E-1,-2.6827154E-1,-2.4223584E-1,6.18166E-1,9.929677E-1,-7.115256E-3,-1.5982118E-1,-5.166477E-1,-4.946279E-1,4.6680853E-1,2.3741418E-2,7.4180835E-1,1.0922158E0,7.8581326E-2,-5.2807915E-1,-2.460777E-2,-5.3596866E-1,-3.2310697E-1,3.222831E-2,-5.051524E-1,-1.3235298E-1,5.755385E-1,7.7915686E-1,-1.2540887E-1,-2.7088553E-1,7.762763E-1,1.125816E-1,3.5049635E-1,1.7212672E-2,-1.6173303E-1,-2.7599806E-1,2.6537424E-1,-2.8963843E-1,-1.6301961E-1,4.315746E-1,-1.520757E-1,-5.1545864E-1,-1.14358164E-1,-1.2816171E-1,6.9474196E-1,-9.037094E-2,1.021492E0,3.4499282E-1,-3.1959876E-1,-1.4987732E-1,1.8436359E-1,8.2472163E-1,2.3188011E-1,-1.2954877E-1,-2.3414418E-3,1.3210687E-1,-7.313563E-2,-1.3033818E-1,5.6990802E-2,3.2211396E-1,-9.736407E-2,-8.2356624E-2,-1.5796171E-1,-1.01419635E-1,6.243993E-2,2.4918614E-1,-1.2200672E-1,2.0641034E-2,3.7133732E-1,-1.4199899E-1,2.8411695E-1,-1.577926E-1,2.1040503E-2,1.8631507E-1,-9.648759E-2,2.6658428E-1,9.8847836E-2,-2.2537243E-2,2.5117862E-1],"categories":[],"categories_nodes":[],"categories_segments":[],"categories_sizes":[],"default_left":[0,0,0,0,0,0,0,0,0,0,0,0,0,0,0,0,0,0,0,0,0,0,0,0,0,0,0,0,0,0,0,0,0,0,0,0,0,0,0,0,0,0,0,0,0,0,0,0,0,0,0,0,0,0,0,0,0,0,0,0,0,0,0,0,0,0,0,0,0,0,0,0,0,0,0,0,0],"id":19,"left_children":[1,3,5,7,9,11,13,15,-1,17,19,21,23,25,27,29,-1,31,33,35,37,-1,39,-1,41,43,45,47,49,-1,-1,-1,-1,51,53,55,-1,57,-1,59,61,-1,63,-1,65,67,69,-1,71,73,75,-1,-1,-1,-1,-1,-1,-1,-1,-1,-1,-1,-1,-1,-1,-1,-1,-1,-1,-1,-1,-1,-1,-1,-1,-1,-1],"loss_changes":[6.8135E1,1.5383093E1,5.7296394E1,1.528573E0,1.2076122E1,2.0642567E1,1.7793266E1,5.034342E-1,0E0,1.5703927E1,3.3815384E-1,5.9033585E-1,3.2607608E0,4.915578E0,7.2115326E0,6.713104E-2,0E0,5.780678E-1,1.6980028E1,6.738663E-2,2.289802E0,0E0,2.7665138E-1,0E0,3.5998487E0,2.1899886E0,3.4509563E0,8.566903E-1,4.9313736E0,0E0,0E0,0E0,0E0,5.208926E0,9.747692E0,4.8103166E-1,0E0,2.0304763E0,0E0,7.142258E-2,3.175349E-1,0E0,4.0910463E0,0E0,1.1718125E0,5.949981E0,2.1606581E0,0E0,9.0371823E-1,5.338463E0,3.2713814E0,0E0,0E0,0E0,0E0,0E0,0E0,0E0,0E0,0E0,0E0,0E0,0E0,0E0,0E0,0E0,0E0,0E0,0E0,0E0,0E0,0E0,0E0,0E0,0E0,0E0,0E0],"parents":[2147483647,0,0,1,1,2,2,3,3,4,4,5,5,6,6,7,7,9,9,10,10,11,11,12,12,13,13,14,14,15,15,17,17,18,18,19,19,20,20,22,22,24,24,25,25,26,26,27,27,28,28,33,33,34,34,35,35,37,37,39,39,40,40,42,42,44,44,45,45,46,46,48,48,49,49,50,50],"right_children":[2,4,6,8,10,12,14,16,-1,18,20,22,24,26,28,30,-1,32,34,36,38,-1,40,-1,42,44,46,48,50,-1,-1,-1,-1,52,54,56,-1,58,-1,60,62,-1,64,-1,66,68,70,-1,72,74,76,-1,-1,-1,-1,-1,-1,-1,-1,-1,-1,-1,-1,-1,-1,-1,-1,-1,-1,-1,-1,-1,-1,-1,-1,-1,-1],"split_conditions":[1.2376634E0,-7.323083E-1,-6.759409E-1,-2.5378572E-2,-1.0484556E-2,-3.3069998E-2,-3.8732064E-1,-4.0176982E-1,-7.115256E-3,-1.03911094E-1,1.4323363E0,-1.5678208E0,-1.2222985E0,-5.935491E-1,-1.5197209E0,-3.1462353E-2,7.8581326E-2,-3.574892E-1,-1.7771024E-1,-7.12443E-1,-6.3867223E-1,3.222831E-2,9.393686E-1,-1.3235298E-1,-4.504209E-1,-3.1405892E-2,-3.6561835E-1,6.019518E-1,6.952017E-1,1.125816E-1,3.5049635E-1,1.7212672E-2,-1.6173303E-1,-6.1230145E-2,7.122146E-1,-1.71742E-1,-1.6301961E-1,-1.0820602E-1,-1.520757E-1,-7.3542964E-1,-4.491828E-1,-1.2816171E-1,2.3933423E0,-9.037094E-2,-3.855247E-1,-6.3949597E-1,-7.726562E-2,-1.4987732E-1,-5.095246E-1,4.6177274E-1,1.7253672E-1,-1.2954877E-1,-2.3414418E-3,1.3210687E-1,-7.313563E-2,-1.3033818E-1,5.6990802E-2,3.2211396E-1,-9.736407E-2,-8.2356624E-2,-1.5796171E-1,-1.01419635E-1,6.243993E-2,2.4918614E-1,-1.2200672E-1,2.0641034E-2,3.7133732E-1,-1.4199899E-1,2.8411695E-1,-1.577926E-1,2.1040503E-2,1.8631507E-1,-9.648759E-2,2.6658428E-1,9.8847836E-2,-2.2537243E-2,2.5117862E-1],"split_indices":[2,1,1,17,11,4,6,10,0,11,1,8,8,1,9,12,0,9,6,5,4,0,9,0,10,12,13,6,8,0,0,0,0,13,9,0,0,5,0,13,10,0,4,0,10,13,11,0,5,9,13,0,0,0,0,0,0,0,0,0,0,0,0,0,0,0,0,0,0,0,0,0,0,0,0,0,0],"split_type":[0,0,0,0,0,0,0,0,0,0,0,0,0,0,0,0,0,0,0,0,0,0,0,0,0,0,0,0,0,0,0,0,0,0,0,0,0,0,0,0,0,0,0,0,0,0,0,0,0,0,0,0,0,0,0,0,0,0,0,0,0,0,0,0,0,0,0,0,0,0,0,0,0,0,0,0,0],"sum_hessian":[8.16321E2,4.6192404E2,3.5439694E2,1.1540194E1,4.5038385E2,1.1305897E2,2.4133798E2,9.882024E0,1.6581696E0,3.1464258E2,1.3574129E2,8.360224E1,2.9456724E1,4.1760685E1,1.995773E2,8.26575E0,1.6162744E0,8.37208E1,2.3092177E2,1.2181167E2,1.3929613E1,1.2781546E0,8.232409E1,2.8231933E0,2.663353E1,6.1892815E0,3.5571404E1,6.3434367E0,1.9323387E2,1.3623943E0,6.9033556E0,1.4705683E0,8.225024E1,1.2371735E2,1.0720442E2,4.7372575E0,1.1707442E2,2.4642336E0,1.146538E1,7.989797E1,2.426113E0,2.555204E0,2.4078327E1,1.0893991E0,5.099882E0,1.0166852E1,2.5404552E1,4.157442E0,2.1859944E0,1.7697049E2,1.6263382E1,7.786467E1,4.5852676E1,7.988547E1,2.731896E1,3.710861E0,1.0263966E0,1.1054227E0,1.358811E0,4.646128E0,7.525185E1,1.4039328E0,1.0221802E0,2.165297E1,2.4253566E0,1.1875253E0,3.912357E0,4.4000883E0,5.7667637E0,1.638081E1,9.023742E0,1.0512922E0,1.1347021E0,1.5604393E2,2.0926554E1,1.1372174E1,4.8912067E0],"tree_param":{"num_deleted":"0","num_feature":"18","num_nodes":"77","size_leaf_vector":"1"}},{"base_weights":[4.2832498E-2,-4.5046557E-2,7.0117044E-1,-4.1989657E-1,3.8157552E-2,1.1125909E0,5.436794E-1,8.1107527E-1,-4.4757003E-1,1.7674091E-1,-3.1507602E-1,2.6187137E-1,1.199365E0,1.9139417E-1,7.72462E-1,3.4239686E-1,3.964205E-2,4.3333638E-1,-4.742331E-1,5.468214E-1,3.2479946E-2,5.04188E-1,-3.713364E-1,2.4678993E-1,-1.2717512E-1,9.0691346E-1,4.2626598E-1,8.958228E-1,-7.378044E-2,5.033304E-1,9.505229E-1,3.2596898E-1,-1.20192684E-1,-5.192459E-1,-2.701635E-1,1.8513517E-1,8.5262036E-1,-9.7766E-3,1.2589226E0,-2.796004E-1,1.1168349E0,-4.074854E-1,3.1727365E-1,2.5382277E-1,3.179803E-1,3.96353E-1,-1.1980008E-1,8.838913E-1,-2.4787576E-1,7.6836663E-1,-1.3985135E-1,1.0532168E0,2.0236024E-1,-1.6428441E-1,1.0867778E-2,1.2548636E-1,-1.4501595E-1,2.9372048E-1,1.3437618E-2,-1.1156084E-1,2.965832E-1,-9.7479425E-2,5.31976E-2,7.63039E-2,4.3130603E-1,5.3288322E-2,-1.287619E-1,7.963016E-2,4.2325264E-1,5.965846E-2,-1.3222614E-1,3.5343054E-1,-1.3427424E-1,-1.0744238E-1,2.1610498E-1,3.2108736E-1,5.994171E-2,-1.5529127E-1,9.504531E-3,2.785146E-1,7.1626455E-3,8.040227E-2,3.30796E-1,-1.2786299E-1,2.88075E-1],"categories":[],"categories_nodes":[],"categories_segments":[],"categories_sizes":[],"default_left":[0,0,0,0,0,0,0,0,0,0,0,0,0,0,0,0,0,0,0,0,0,0,0,0,0,0,0,0,0,0,0,0,0,0,0,0,0,0,0,0,0,0,0,0,0,0,0,0,0,0,0,0,0,0,0,0,0,0,0,0,0,0,0,0,0,0,0,0,0,0,0,0,0,0,0,0,0,0,0,0,0,0,0,0,0],"id":20,"left_children":[1,3,5,7,9,11,13,15,17,19,21,23,25,27,29,-1,-1,31,33,35,37,39,41,-1,-1,43,-1,45,47,49,51,-1,-1,53,55,57,59,61,63,65,67,69,71,73,-1,-1,-1,75,77,79,-1,81,83,-1,-1,-1,-1,-1,-1,-1,-1,-1,-1,-1,-1,-1,-1,-1,-1,-1,-1,-1,-1,-1,-1,-1,-1,-1,-1,-1,-1,-1,-1,-1,-1],"loss_changes":[4.724063E1,2.2498466E1,5.6256485E0,4.8263187E0,2.8977758E1,1.5804119E0,5.6143494E0,5.748277E-1,3.2303867E0,2.2671223E1,7.8772297E0,1.7542093E0,2.0199203E-1,5.572597E0,1.5829525E0,0E0,0E0,2.7811756E0,1.0123444E0,1.3018803E1,1.5914726E1,5.6639895E0,4.029825E0,0E0,0E0,9.9828625E-1,0E0,5.010885E0,3.9438372E0,5.3053684E0,1.6893997E0,0E0,0E0,1.6227379E0,3.836909E0,6.1799135E0,1.1071003E1,1.7607056E1,1.4710693E0,4.654157E-1,1.2415009E0,3.099697E0,6.043278E0,1.3206403E0,0E0,0E0,0E0,2.5228333E-1,1.5009161E0,1.824048E0,0E0,5.4045486E-1,2.4227202E0,0E0,0E0,0E0,0E0,0E0,0E0,0E0,0E0,0E0,0E0,0E0,0E0,0E0,0E0,0E0,0E0,0E0,0E0,0E0,0E0,0E0,0E0,0E0,0E0,0E0,0E0,0E0,0E0,0E0,0E0,0E0,0E0],"parents":[2147483647,0,0,1,1,2,2,3,3,4,4,5,5,6,6,7,7,8,8,9,9,10,10,11,11,12,12,13,13,14,14,17,17,18,18,19,19,20,20,21,21,22,22,25,25,27,27,28,28,29,29,30,30,33,33,34,34,35,35,36,36,37,37,38,38,39,39,40,40,41,41,42,42,43,43,47,47,48,48,49,49,51,51,52,52],"right_children":[2,4,6,8,10,12,14,16,18,20,22,24,26,28,30,-1,-1,32,34,36,38,40,42,-1,-1,44,-1,46,48,50,52,-1,-1,54,56,58,60,62,64,66,68,70,72,74,-1,-1,-1,76,78,80,-1,82,84,-1,-1,-1,-1,-1,-1,-1,-1,-1,-1,-1,-1,-1,-1,-1,-1,-1,-1,-1,-1,-1,-1,-1,-1,-1,-1,-1,-1,-1,-1,-1,-1],"split_conditions":[8.742519E-1,-4.6134415E-1,1.8663314E-1,-1.7052474E0,-1.3481019E-2,-1.5425551E0,2.240374E0,-3.1330213E-2,-1.1875907E0,-6.3867223E-1,-6.9456714E-1,9.308187E-1,-6.763461E-2,-6.759409E-1,-3.1357016E-2,3.4239686E-1,3.964205E-2,-3.322095E-1,-1.6995811E-1,-3.2010582E-1,1.3714753E0,1.3066293E0,1.8383083E0,2.4678993E-1,-1.2717512E-1,-2.5377624E-2,4.2626598E-1,1.19855486E-1,-1.0750859E0,-2.5431933E-2,-7.234942E-1,3.2596898E-1,-1.20192684E-1,3.279632E-1,-6.896859E-1,-6.910831E-1,-2.5439525E-2,-6.768046E-1,-3.1450137E-2,6.302115E-3,-1.9560194E0,-7.236977E-1,-8.83902E-3,-2.980511E-1,3.179803E-1,3.96353E-1,-1.1980008E-1,-3.1495532E-1,3.398378E-2,2.8132585E-1,-1.3985135E-1,-7.236977E-1,9.488894E-1,-1.6428441E-1,1.0867778E-2,1.2548636E-1,-1.4501595E-1,2.9372048E-1,1.3437618E-2,-1.1156084E-1,2.965832E-1,-9.7479425E-2,5.31976E-2,7.63039E-2,4.3130603E-1,5.3288322E-2,-1.287619E-1,7.963016E-2,4.2325264E-1,5.965846E-2,-1.3222614E-1,3.5343054E-1,-1.3427424E-1,-1.0744238E-1,2.1610498E-1,3.2108736E-1,5.994171E-2,-1.5529127E-1,9.504531E-3,2.785146E-1,7.1626455E-3,8.040227E-2,3.30796E-1,-1.2786299E-1,2.88075E-1],"split_indices":[4,10,8,6,11,5,4,12,9,4,13,6,13,1,12,0,0,0,4,5,9,8,5,0,0,15,0,5,9,17,2,0,0,13,1,13,15,1,12,11,9,1,12,0,0,0,0,0,9,6,0,1,5,0,0,0,0,0,0,0,0,0,0,0,0,0,0,0,0,0,0,0,0,0,0,0,0,0,0,0,0,0,0,0,0],"split_type":[0,0,0,0,0,0,0,0,0,0,0,0,0,0,0,0,0,0,0,0,0,0,0,0,0,0,0,0,0,0,0,0,0,0,0,0,0,0,0,0,0,0,0,0,0,0,0,0,0,0,0,0,0,0,0,0,0,0,0,0,0,0,0,0,0,0,0,0,0,0,0,0,0,0,0,0,0,0,0,0,0,0,0,0,0],"sum_hessian":[8.150015E2,7.198439E2,9.515767E1,1.3002235E2,5.8982153E2,2.466355E1,7.049412E1,2.2363446E0,1.2778601E2,4.2398145E2,1.6584006E2,2.6547399E0,2.200881E1,2.8478605E1,4.2015514E1,1.046337E0,1.1900076E0,3.3060763E0,1.24479935E2,1.18134384E2,3.0584705E2,1.0145113E1,1.5569495E2,1.350724E0,1.3040159E0,1.16812725E1,1.0327537E1,7.13813E0,2.1340475E1,1.8253242E1,2.3762272E1,1.6841063E0,1.6219698E0,1.0071923E2,2.3760706E1,5.4857105E1,6.327728E1,2.966192E2,9.227857E0,4.689382E0,5.4557314E0,1.483172E2,7.377754E0,2.7221067E0,8.959167E0,5.3582797E0,1.7798506E0,2.655565E0,1.868491E1,1.4497477E1,3.755766E0,2.0535767E1,3.2265058E0,9.5838745E1,4.8804803E0,5.391374E0,1.8369331E1,7.3426805E0,4.7514427E1,6.151664E0,5.7125618E1,1.102229E2,1.863963E2,1.7600348E0,7.467822E0,1.1099205E0,3.5794616E0,1.8888159E0,3.5669155E0,7.455537E0,1.4086166E2,3.2169018E0,4.1608524E0,1.27801E0,1.4440967E0,1.6432533E0,1.0123117E0,9.075645E0,9.609264E0,1.1729438E1,2.7680387E0,1.5966784E0,1.8939089E1,2.002954E0,1.2235518E0],"tree_param":{"num_deleted":"0","num_feature":"18","num_nodes":"85","size_leaf_vector":"1"}},{"base_weights":[4.984146E-3,-4.3243632E-1,3.3039266E-1,-4.980434E-1,-5.848356E-2,3.3802968E-2,5.843028E-1,-1.510767E-1,-5.074486E-1,3.90484E-1,-4.2924953E-1,4.567577E-1,-2.017554E-1,6.2565976E-1,1.5264518E-2,-1.3755083E-1,5.279442E-1,-5.109024E-1,2.760697E-2,5.460037E-1,-1.2796217E-1,1.3879615E-1,-1.5785109E-1,-6.624859E-2,6.741706E-1,1.0790079E-1,-3.453055E-1,7.072333E-1,3.8674438E-1,5.8509314E-1,-4.947064E-1,1.9081113E-1,4.7771737E-2,-2.8956646E-1,-5.207184E-1,6.271222E-1,-1.00840844E-1,2.0217977E-1,-1.12911366E-1,2.2115445E-1,-1.6963317E-1,7.314061E-1,-1.18696705E-1,-1.5656039E-1,6.735104E-1,-4.392671E-1,1.2851831E-1,2.561125E-1,7.747691E-1,-1.7145382E-1,6.345241E-1,-9.259907E-3,2.1228194E-1,-1.7297035E-1,2.2840362E-2,-1.4946912E-1,1.6327982E-1,-1.5947707E-1,-1.12077415E-1,9.9788226E-2,3.1470457E-1,-1.3080733E-1,1.3577174E-1,2.357785E-1,-1.07101806E-1,2.2915348E-1,-1.0065711E-1,2.293225E-1,-1.4365312E-1,2.9800957E-1,-1.4739217E-1,1.9011769E-1,-1.22730814E-1,2.4953523E-1,4.6316892E-2,1.1645674E-1,-1.8517533E-1,2.2223234E-1,-1.7179517E-1],"categories":[],"categories_nodes":[],"categories_segments":[],"categories_sizes":[],"default_left":[0,0,0,0,0,0,0,0,0,0,0,0,0,0,0,0,0,0,0,0,0,0,0,0,0,0,0,0,0,0,0,0,0,0,0,0,0,0,0,0,0,0,0,0,0,0,0,0,0,0,0,0,0,0,0,0,0,0,0,0,0,0,0,0,0,0,0,0,0,0,0,0,0,0,0,0,0,0,0],"id":21,"left_children":[1,3,5,7,9,11,13,15,17,19,21,23,25,27,29,-1,31,33,-1,35,-1,37,-1,39,41,43,45,47,49,51,53,-1,-1,55,57,59,-1,-1,-1,61,-1,63,-1,-1,65,67,69,71,73,75,77,-1,-1,-1,-1,-1,-1,-1,-1,-1,-1,-1,-1,-1,-1,-1,-1,-1,-1,-1,-1,-1,-1,-1,-1,-1,-1,-1,-1],"loss_changes":[1.0413203E2,7.627407E0,3.1570671E1,7.8930664E-1,8.109983E0,1.9474684E1,5.3077316E0,2.0012698E0,5.810623E-1,3.0415258E0,1.5379801E0,7.9925585E0,5.6224084E0,3.8310928E0,5.03595E0,0E0,2.1915734E-2,4.067459E-1,0E0,1.5709763E0,0E0,1.540975E0,0E0,3.2003055E0,3.3180733E0,1.4798988E1,3.8891602E0,4.54821E0,7.8282948E0,6.385467E-1,4.72008E-1,0E0,0E0,2.5591412E0,1.9243622E-1,1.8572078E0,0E0,0E0,0E0,2.3754516E0,0E0,3.0875835E0,0E0,0E0,2.2438192E0,3.7991238E0,8.539595E0,5.73041E0,4.6472397E0,4.7168374E0,5.4094257E0,0E0,0E0,0E0,0E0,0E0,0E0,0E0,0E0,0E0,0E0,0E0,0E0,0E0,0E0,0E0,0E0,0E0,0E0,0E0,0E0,0E0,0E0,0E0,0E0,0E0,0E0,0E0,0E0],"parents":[2147483647,0,0,1,1,2,2,3,3,4,4,5,5,6,6,7,7,8,8,9,9,10,10,11,11,12,12,13,13,14,14,16,16,17,17,19,19,21,21,23,23,24,24,25,25,26,26,27,27,28,28,29,29,30,30,33,33,34,34,35,35,39,39,41,41,44,44,45,45,46,46,47,47,48,48,49,49,50,50],"right_children":[2,4,6,8,10,12,14,16,18,20,22,24,26,28,30,-1,32,34,-1,36,-1,38,-1,40,42,44,46,48,50,52,54,-1,-1,56,58,60,-1,-1,-1,62,-1,64,-1,-1,66,68,70,72,74,76,78,-1,-1,-1,-1,-1,-1,-1,-1,-1,-1,-1,-1,-1,-1,-1,-1,-1,-1,-1,-1,-1,-1,-1,-1,-1,-1,-1,-1],"split_conditions":[6.4537853E-1,8.43014E-2,-6.2323105E-1,-1.3462132E0,-1.6572429E-1,-6.457666E-1,-3.0922648E-1,1.2752094E0,6.2701255E-1,1.9538878E-1,-1.2265792E0,-2.833994E-1,-1.8777005E-1,-7.234942E-1,-1.538884E0,-1.3755083E-1,-4.1535857E-1,-6.910831E-1,2.760697E-2,-2.860653E-1,-1.2796217E-1,-7.234942E-1,-1.5785109E-1,-6.726553E-1,-3.6989245E-1,-2.5301216E-2,5.4704493E-1,-2.859759E-1,-2.5377624E-2,-1.5958689E-1,-2.4889998E-2,1.9081113E-1,4.7771737E-2,-2.5341593E-2,3.9632803E-1,-9.719015E-2,-1.00840844E-1,2.0217977E-1,-1.12911366E-1,-7.095447E-1,-1.6963317E-1,1.789742E0,-1.18696705E-1,-1.5656039E-1,1.8126155E-1,-1.8525685E0,-4.9698594E-1,-4.496428E-1,4.8712036E-1,1.3582762E0,1.0612E-1,-9.259907E-3,2.1228194E-1,-1.7297035E-1,2.2840362E-2,-1.4946912E-1,1.6327982E-1,-1.5947707E-1,-1.12077415E-1,9.9788226E-2,3.1470457E-1,-1.3080733E-1,1.3577174E-1,2.357785E-1,-1.07101806E-1,2.2915348E-1,-1.0065711E-1,2.293225E-1,-1.4365312E-1,2.9800957E-1,-1.4739217E-1,1.9011769E-1,-1.22730814E-1,2.4953523E-1,4.6316892E-2,1.1645674E-1,-1.8517533E-1,2.2223234E-1,-1.7179517E-1],"split_indices":[8,4,1,9,14,5,10,6,8,9,9,16,4,2,6,0,10,13,0,5,0,2,0,1,10,17,9,16,15,14,17,0,0,15,8,11,0,0,0,1,0,13,0,0,9,6,13,10,13,1,9,0,0,0,0,0,0,0,0,0,0,0,0,0,0,0,0,0,0,0,0,0,0,0,0,0,0,0,0],"split_type":[0,0,0,0,0,0,0,0,0,0,0,0,0,0,0,0,0,0,0,0,0,0,0,0,0,0,0,0,0,0,0,0,0,0,0,0,0,0,0,0,0,0,0,0,0,0,0,0,0,0,0,0,0,0,0,0,0,0,0,0,0,0,0,0,0,0,0,0,0,0,0,0,0,0,0,0,0,0,0],"sum_hessian":[7.29567E2,3.1107928E2,4.1848773E2,2.6436646E2,4.6712833E1,1.9354408E2,2.2494363E2,7.4273853E0,2.5693906E2,2.1104187E1,2.5608644E1,6.889723E1,1.2464685E2,2.0960997E2,1.53336735E1,5.3361897E0,2.0911958E0,2.5561412E2,1.3249412E0,1.8008085E1,3.0961015E0,3.6695578E0,2.1939087E1,2.0434795E1,4.846244E1,3.9559727E1,8.508713E1,1.5479698E2,5.4812984E1,7.1722617E0,8.161411E0,1.056428E0,1.0347679E0,1.214996E1,2.4346416E2,1.6756323E1,1.2517635E0,1.6487336E0,2.0208242E0,1.3321912E1,7.1128826E0,4.6301643E1,2.160796E0,1.8754816E1,2.0804909E1,7.10671E1,1.4020024E1,2.0780582E1,1.340164E2,1.6945713E1,3.786727E1,1.3139877E0,5.858274E0,7.1290393E0,1.0323721E0,1.003997E1,2.1099892E0,2.2427815E2,1.9186007E1,1.0921312E1,5.83501E0,3.2391782E0,1.0082734E1,4.435754E1,1.9441057E0,1.9318407E1,1.4865016E0,1.6792781E0,6.9387825E1,5.601525E0,8.4185E0,1.3286031E1,7.4945517E0,1.2242442E2,1.1591977E1,7.5707746E0,9.374939E0,3.5159077E1,2.708195E0],"tree_param":{"num_deleted":"0","num_feature":"18","num_nodes":"79","size_leaf_vector":"1"}},{"base_weights":[-1.9726753E-2,-4.3765604E-1,3.8402352E-1,-4.8636255E-1,7.5790323E-3,7.1782595E-1,-5.001169E-1,-1.6134922E-1,-3.526858E-1,5.1096374E-1,-1.5394619E-1,7.6727736E-1,-2.3179267E-1,3.2934006E-2,-5.2704656E-1,-1.5849356E-1,1.690156E-1,-2.699532E-1,7.401624E-1,-1.1743365E-1,7.745328E-1,-1.4539927E-1,1.998531E-1,1.7677316E-1,-1.20327845E-1,-1.6092709E-1,-1.7297727E-1,4.3178222E-1,-1.4414816E-1,5.4218587E-2,-1.316708E-1,-1.0665237E-1,8.928573E-1,8.0492216E-1,4.8041633E-1,-1.1873513E-1,2.3428245E-1,-1.1051503E-1,4.9102884E-2,2.0594384E-1,-1.3341849E-1,8.884066E-2,2.8292906E-1,6.8668686E-2,2.4231172E-1,-1.274251E-1,2.3958057E-1],"categories":[],"categories_nodes":[],"categories_segments":[],"categories_sizes":[],"default_left":[0,0,0,0,0,0,0,0,0,0,0,0,0,0,0,0,0,0,0,0,0,0,0,0,0,0,0,0,0,0,0,0,0,0,0,0,0,0,0,0,0,0,0,0,0,0,0],"id":22,"left_children":[1,3,5,7,9,11,13,-1,15,17,-1,19,21,23,25,-1,27,29,31,-1,33,-1,35,-1,-1,-1,37,39,-1,-1,-1,-1,41,43,45,-1,-1,-1,-1,-1,-1,-1,-1,-1,-1,-1,-1],"loss_changes":[1.17833E2,7.4443283E0,1.05191086E2,1.9382706E0,9.389015E0,1.230603E1,1.423296E0,0E0,8.233288E0,3.458229E0,0E0,2.3689423E0,1.5760252E0,1.6008507E0,2.1694756E-1,0E0,4.1573954E0,4.4964278E-1,2.7167916E0,0E0,1.7988434E0,0E0,2.2868667E0,0E0,0E0,0E0,3.1572646E-1,4.1014066E0,0E0,0E0,0E0,0E0,1.0660744E-1,1.6810608E-1,7.648785E0,0E0,0E0,0E0,0E0,0E0,0E0,0E0,0E0,0E0,0E0,0E0,0E0],"parents":[2147483647,0,0,1,1,2,2,3,3,4,4,5,5,6,6,8,8,9,9,11,11,12,12,13,13,14,14,16,16,17,17,18,18,20,20,22,22,26,26,27,27,32,32,33,33,34,34],"right_children":[2,4,6,8,10,12,14,-1,16,18,-1,20,22,24,26,-1,28,30,32,-1,34,-1,36,-1,-1,-1,38,40,-1,-1,-1,-1,42,44,46,-1,-1,-1,-1,-1,-1,-1,-1,-1,-1,-1,-1],"split_conditions":[1.2090267E0,1.780387E0,-6.771472E-1,7.258201E-1,1.9016739E0,-9.589388E-2,-6.759409E-1,-1.6134922E-1,-1.6098733E-1,-6.726553E-1,-1.5394619E-1,-4.5970693E-1,1.1183963E-1,-1.4120421E-1,1.7306688E0,-1.5849356E-1,-4.9088922E-1,-2.905058E-1,-7.12443E-1,-1.1743365E-1,5.1887417E-1,-1.4539927E-1,-2.0322977E-1,1.7677316E-1,-1.20327845E-1,-1.6092709E-1,1.7722514E-1,-5.465792E-1,-1.4414816E-1,5.4218587E-2,-1.316708E-1,-1.0665237E-1,-3.1371392E-2,-3.1465262E-2,-4.388497E-1,-1.1873513E-1,2.3428245E-1,-1.1051503E-1,4.9102884E-2,2.0594384E-1,-1.3341849E-1,8.884066E-2,2.8292906E-1,6.8668686E-2,2.4231172E-1,-1.274251E-1,2.3958057E-1],"split_indices":[2,4,1,9,4,4,1,0,14,1,0,4,9,4,1,0,8,16,5,0,9,0,6,0,0,0,13,4,0,0,0,0,12,12,10,0,0,0,0,0,0,0,0,0,0,0,0],"split_type":[0,0,0,0,0,0,0,0,0,0,0,0,0,0,0,0,0,0,0,0,0,0,0,0,0,0,0,0,0,0,0,0,0,0,0,0,0,0,0,0,0,0,0,0,0,0,0],"sum_hessian":[6.9631885E2,3.4211026E2,3.542086E2,3.0829224E2,3.3818012E1,2.5726694E2,9.6941635E1,2.2040767E2,8.788458E1,1.720498E1,1.6613033E1,2.4471541E2,1.255154E1,4.651233E0,9.2290405E1,6.5740845E1,2.2143734E1,3.8635225E0,1.3341458E1,1.1932725E0,2.4352213E2,7.8373485E0,4.714192E0,1.8817266E0,2.7695065E0,8.940755E1,2.8828616E0,1.6004246E1,6.1394863E0,1.0344231E0,2.8290992E0,1.4694098E0,1.1872048E1,2.1914261E2,2.4379515E1,2.4854288E0,2.228763E0,1.7644557E0,1.1184059E0,1.2568797E1,3.4354494E0,1.457308E0,1.0414741E1,1.4541353E0,2.1768848E2,6.2538366E0,1.8125679E1],"tree_param":{"num_deleted":"0","num_feature":"18","num_nodes":"47","size_leaf_vector":"1"}},{"base_weights":[-2.0909961E-2,7.442075E-1,-3.945817E-1,7.923483E-1,-1.4452572E-1,-4.5735905E-1,7.6435786E-1,-1.1523473E-1,8.0121803E-1,-1.9628203E-1,-5.2986467E-1,-1.09284766E-1,2.6516747E-1,4.0025193E-2,8.058936E-1,-4.034135E-1,2.7165982E-1,-3.80293E-1,-1.612952E-1,7.815021E-2,2.4253698E-1,1.8333487E-1,-5.0814885E-1,-2.1546708E-4,1.1605259E0,2.184284E-1,-1.553917E-1,-1.4433065E-1,2.5471526E-1,-7.85148E-2,-1.5649334E-1,1.2797146E-1,-1.3219874E-1,1.4588372E-1,3.976977E-1],"categories":[],"categories_nodes":[],"categories_segments":[],"categories_sizes":[],"default_left":[0,0,0,0,0,0,0,0,0,0,0,0,0,0,0,0,0,0,0,0,0,0,0,0,0,0,0,0,0,0,0,0,0,0,0],"id":23,"left_children":[1,3,5,7,-1,9,11,-1,13,15,17,-1,-1,-1,19,21,23,25,-1,-1,-1,27,29,31,33,-1,-1,-1,-1,-1,-1,-1,-1,-1,-1],"loss_changes":[1.9792043E2,1.3788567E1,3.4186157E1,2.592575E0,0E0,8.259132E0,3.5965347E0,0E0,5.7203674E-1,9.571087E0,1.9753265E-1,0E0,0E0,0E0,9.121704E-2,4.2761154E0,7.382737E0,3.5049348E0,0E0,0E0,0E0,5.2938166E0,5.644512E-2,4.77338E0,1.5205956E-1,0E0,0E0,0E0,0E0,0E0,0E0,0E0,0E0,0E0,0E0],"parents":[2147483647,0,0,1,1,2,2,3,3,5,5,6,6,8,8,9,9,10,10,14,14,15,15,16,16,17,17,21,21,22,22,23,23,24,24],"right_children":[2,4,6,8,-1,10,12,-1,14,16,18,-1,-1,-1,20,22,24,26,-1,-1,-1,28,30,32,34,-1,-1,-1,-1,-1,-1,-1,-1,-1,-1],"split_conditions":[-2.5450328E-2,-4.5970693E-1,2.6814904E0,-7.3096454E-2,-1.4452572E-1,-6.3867223E-1,-7.236977E-1,-1.1523473E-1,-1.9630406E-2,5.4704493E-1,-1.4120294E0,-1.09284766E-1,2.6516747E-1,4.0025193E-2,-1.7866848E-2,-6.8073964E-1,-2.4925414E-2,-1.2265792E0,-1.612952E-1,7.815021E-2,2.4253698E-1,-5.866111E-1,-8.034633E-1,-2.3453747E-1,-3.0908713E-2,2.184284E-1,-1.553917E-1,-1.4433065E-1,2.5471526E-1,-7.85148E-2,-1.5649334E-1,1.2797146E-1,-1.3219874E-1,1.4588372E-1,3.976977E-1],"split_indices":[15,4,9,10,0,4,1,0,11,9,5,0,0,0,0,9,17,9,0,0,0,1,8,13,12,0,0,0,0,0,0,0,0,0,0],"split_type":[0,0,0,0,0,0,0,0,0,0,0,0,0,0,0,0,0,0,0,0,0,0,0,0,0,0,0,0,0,0,0,0,0,0,0],"sum_hessian":[6.902377E2,2.2616283E2,4.6407483E2,2.1795778E2,8.205052E0,4.4080286E2,2.3271997E1,1.3143699E0,2.166434E2,9.661617E1,3.4418668E2,2.0326004E0,2.1239397E1,1.7116281E0,2.1493178E2,6.70672E1,2.954897E1,1.9496462E1,3.2469022E2,1.4853823E0,2.134464E2,1.0044643E1,5.7022556E1,2.3393435E1,6.1555347E0,1.6803621E0,1.78161E1,5.165942E0,4.878701E0,4.019419E0,5.300314E1,1.1896955E1,1.149648E1,1.9870545E0,4.1684804E0],"tree_param":{"num_deleted":"0","num_feature":"18","num_nodes":"35","size_leaf_vector":"1"}},{"base_weights":[-3.219763E-2,7.684691E-1,-5.259226E-1,8.0383444E-1,-1.4573881E-1,-5.3438187E-1,-3.243785E-1,8.1028265E-1,-8.958392E-2,-1.6168952E-1,-3.6150077E-1,2.4754317E-1,-1.5351327E-1,-9.178324E-3,2.4450824E-1,-1.49068E-1,8.7296575E-2],"categories":[],"categories_nodes":[],"categories_segments":[],"categories_sizes":[],"default_left":[0,0,0,0,0,0,0,0,0,0,0,0,0,0,0,0,0],"id":24,"left_children":[1,3,5,7,-1,9,11,13,-1,-1,15,-1,-1,-1,-1,-1,-1],"loss_changes":[2.701829E2,1.1955215E1,5.4738617E-1,2.0471954E0,0E0,1.2541199E-1,4.63714E0,1.0332947E0,0E0,0E0,1.3349947E0,0E0,0E0,0E0,0E0,0E0,0E0],"parents":[2147483647,0,0,1,1,2,2,3,3,5,5,6,6,7,7,10,10],"right_children":[2,4,6,8,-1,10,12,14,-1,-1,16,-1,-1,-1,-1,-1,-1],"split_conditions":[-3.416512E-1,-6.6226184E-1,1.6395527E0,8.43014E-2,-1.4573881E-1,1.5697826E0,-3.1423442E-2,-6.6229805E-2,-8.958392E-2,-1.6168952E-1,2.4683914E-1,2.4754317E-1,-1.5351327E-1,-9.178324E-3,2.4450824E-1,-1.49068E-1,8.7296575E-2],"split_indices":[0,1,5,4,0,6,12,9,0,0,13,0,0,0,0,0,0],"split_type":[0,0,0,0,0,0,0,0,0,0,0,0,0,0,0,0,0],"sum_hessian":[6.8145E2,2.5971594E2,4.2173407E2,2.5294304E2,6.7728868E0,4.0316107E2,1.8573004E1,2.5173566E2,1.2073817E0,3.9068613E2,1.2474923E1,2.1255217E0,1.6447483E1,1.3819115E0,2.5035374E2,1.0528672E1,1.9462502E0],"tree_param":{"num_deleted":"0","num_feature":"18","num_nodes":"17","size_leaf_vector":"1"}},{"base_weights":[-1.3125903E-2,4.290188E-1,-3.9289948E-1,5.160185E-1,-4.6666288E-1,-4.9474436E-1,2.9518437E-2,5.684203E-1,-1.5378776E-1,-7.291247E-2,-1.5636232E-1,-1.6128029E-1,-3.1605163E-1,3.2689255E-1,-1.5776633E-1,3.4756087E-2,6.460691E-1,1.5408018E-1,-1.2053353E-1,-1.5770853E-1,5.1208454E-1,7.182312E-1,-1.5717354E-1,-4.3805236E-1,5.846557E-1,6.7635167E-1,-1.4885746E-1,9.74907E-1,-1.3591972E-1,8.819611E-1,-1.3816573E-1,-1.567309E-1,1.09184355E-1,2.4019702E-1,-1.23808764E-1,2.105368E-1,-1.6752045E-1,7.675665E-3,3.3290493E-1,-1.09593414E-1,2.896977E-1],"categories":[],"categories_nodes":[],"categories_segments":[],"categories_sizes":[],"default_left":[0,0,0,0,0,0,0,0,0,0,0,0,0,0,0,0,0,0,0,0,0,0,0,0,0,0,0,0,0,0,0,0,0,0,0,0,0,0,0,0,0],"id":25,"left_children":[1,3,5,7,9,11,13,15,-1,17,-1,-1,19,21,-1,23,25,-1,-1,-1,27,29,-1,31,33,35,-1,37,-1,39,-1,-1,-1,-1,-1,-1,-1,-1,-1,-1,-1],"loss_changes":[1.200902E2,2.5992432E1,1.6565262E1,1.6553223E1,6.0164165E-1,2.2043686E0,1.2671258E1,1.1892693E1,0E0,1.1295661E0,0E0,0E0,1.1102537E1,1.6992409E1,0E0,1.002679E1,9.016396E0,0E0,0E0,0E0,6.298703E0,7.0849113E0,0E0,1.5963118E0,4.165475E0,8.083992E0,0E0,1.1460819E0,0E0,3.5604973E0,0E0,0E0,0E0,0E0,0E0,0E0,0E0,0E0,0E0,0E0,0E0],"parents":[2147483647,0,0,1,1,2,2,3,3,4,4,5,5,6,6,7,7,9,9,12,12,13,13,15,15,16,16,20,20,21,21,23,23,24,24,25,25,27,27,29,29],"right_children":[2,4,6,8,10,12,14,16,-1,18,-1,-1,20,22,-1,24,26,-1,-1,-1,28,30,-1,32,34,36,-1,38,-1,40,-1,-1,-1,-1,-1,-1,-1,-1,-1,-1,-1],"split_conditions":[-8.81688E-1,1.3582762E0,4.0040165E-1,-1.7866848E-2,-1.693976E-1,8.699655E-1,8.604129E-1,-2.9936084E-1,-1.5378776E-1,-1.5576072E0,-1.5636232E-1,-1.6128029E-1,1.1964456E0,-7.234942E-1,-1.5776633E-1,-1.4120421E-1,9.5394355E-1,1.5408018E-1,-1.2053353E-1,-1.5770853E-1,-2.403052E-1,3.4572232E-1,-1.5717354E-1,-1.634094E-1,8.604129E-1,-1.2353763E-1,-1.4885746E-1,-2.5374325E-2,-1.3591972E-1,-6.172694E-1,-1.3816573E-1,-1.567309E-1,1.09184355E-1,2.4019702E-1,-1.23808764E-1,2.105368E-1,-1.6752045E-1,7.675665E-3,3.3290493E-1,-1.09593414E-1,2.896977E-1],"split_indices":[6,1,4,0,4,9,4,9,0,6,0,0,1,2,0,4,9,0,0,0,13,9,0,16,4,10,0,15,0,5,0,0,0,0,0,0,0,0,0,0,0],"split_type":[0,0,0,0,0,0,0,0,0,0,0,0,0,0,0,0,0,0,0,0,0,0,0,0,0,0,0,0,0,0,0,0,0,0,0,0,0,0,0,0,0],"sum_hessian":[7.131812E2,3.294709E2,3.8371033E2,3.006882E2,2.8782679E1,3.0903165E2,7.467868E1,2.865386E2,1.4149605E1,3.7863567E0,2.4996323E1,2.4763242E2,6.1399223E1,4.8905346E1,2.5773336E1,3.657995E1,2.4995865E2,1.1585028E0,2.6278539E0,4.9287304E1,1.2111919E1,3.3604385E1,1.530096E1,1.9778027E1,1.6801922E1,2.4390047E2,6.0581727E0,8.179474E0,3.9324458E0,2.9727165E1,3.8772202E0,1.8210552E1,1.5674739E0,1.3972953E1,2.8289683E0,2.3940015E2,4.500333E0,1.1648014E0,7.0146723E0,1.6578023E0,2.8069363E1],"tree_param":{"num_deleted":"0","num_feature":"18","num_nodes":"41","size_leaf_vector":"1"}},{"base_weights":[1.7448101E-2,-3.2243153E-1,1.89574E-1,-1.712686E-1,-5.196283E-1,-5.14875E-1,2.8204829E-1,-2.3258555E-1,4.882533E-1,-1.6088147E-1,-2.3587914E-1,-1.5879361E-1,4.284061E-2,4.5874622E-1,2.6335227E-3,-1.0046299E-1,-3.8475102E-1,-2.0523453E-1,1.0606519E0,-1.3662478E-1,1.2537149E-1,5.044079E-1,-3.5783115E-1,-3.163714E-1,4.8709404E-1,3.3058837E-2,-4.798015E-1,-4.0847185E-1,8.601906E-2,1.3260424E-1,-1.2804757E-1,1.4821635E0,2.8895137E-1,-1.4799447E-1,5.597373E-1,-1.612494E-1,8.8678464E-2,-4.1978997E-1,5.227245E-1,-1.5311573E-1,7.1796805E-1,-5.5342898E-2,9.8961204E-2,-1.5501057E-1,1.39138885E-2,6.1842762E-2,-1.2683347E-1,1.7529403E-1,-1.02867834E-1,1.419728E-1,-8.587924E-2,5.646963E-1,1.6311084E-1,-9.497807E-2,2.1472625E-1,-9.2166245E-2,1.5011428E-1,2.3671526E-1,1.22044474E-1,1.8872388E-1,-1.1560101E-1,-1.369804E-1,2.4487065E-1,2.6136097E-1,-5.865481E-2,6.739745E-2,-1.23112954E-1,2.4648684E-1,-9.336403E-3],"categories":[],"categories_nodes":[],"categories_segments":[],"categories_sizes":[],"default_left":[0,0,0,0,0,0,0,0,0,0,0,0,0,0,0,0,0,0,0,0,0,0,0,0,0,0,0,0,0,0,0,0,0,0,0,0,0,0,0,0,0,0,0,0,0,0,0,0,0,0,0,0,0,0,0,0,0,0,0,0,0,0,0,0,0,0,0,0,0],"id":26,"left_children":[1,3,5,7,9,11,13,15,17,-1,19,-1,-1,21,23,25,27,29,31,-1,-1,33,35,37,39,41,43,45,47,49,-1,51,53,55,57,-1,59,61,63,65,67,-1,-1,-1,-1,-1,-1,-1,-1,-1,-1,-1,-1,-1,-1,-1,-1,-1,-1,-1,-1,-1,-1,-1,-1,-1,-1,-1,-1],"loss_changes":[4.4349026E1,7.5083485E0,3.2922928E1,6.008312E0,3.9346695E-1,6.333227E-1,2.199017E1,2.6562285E0,5.267692E0,0E0,1.3221238E0,0E0,0E0,1.0354416E1,2.6977304E1,3.7183988E0,7.2686195E-1,5.4996884E-1,1.8914948E0,0E0,0E0,9.425667E0,1.2538053E0,9.353513E0,1.0353632E1,3.6123292E0,3.9473677E-1,6.07214E-1,1.0119705E0,6.168024E-1,0E0,6.1770153E-1,1.1987438E0,2.3243628E0,8.053024E0,0E0,1.5673308E0,4.6616325E0,3.1725678E0,1.9574697E0,3.9942017E0,0E0,0E0,0E0,0E0,0E0,0E0,0E0,0E0,0E0,0E0,0E0,0E0,0E0,0E0,0E0,0E0,0E0,0E0,0E0,0E0,0E0,0E0,0E0,0E0,0E0,0E0,0E0,0E0],"parents":[2147483647,0,0,1,1,2,2,3,3,4,4,5,5,6,6,7,7,8,8,10,10,13,13,14,14,15,15,16,16,17,17,18,18,21,21,22,22,23,23,24,24,25,25,26,26,27,27,28,28,29,29,31,31,32,32,33,33,34,34,36,36,37,37,38,38,39,39,40,40],"right_children":[2,4,6,8,10,12,14,16,18,-1,20,-1,-1,22,24,26,28,30,32,-1,-1,34,36,38,40,42,44,46,48,50,-1,52,54,56,58,-1,60,62,64,66,68,-1,-1,-1,-1,-1,-1,-1,-1,-1,-1,-1,-1,-1,-1,-1,-1,-1,-1,-1,-1,-1,-1,-1,-1,-1,-1,-1,-1],"split_conditions":[-4.634754E-1,-1.9630406E-2,-3.4513187E-1,1.0004201E0,1.6265993E0,1.6358479E0,-7.019577E-2,-2.5365073E-2,-6.759409E-1,-1.6088147E-1,-7.234942E-1,-1.5879361E-1,4.284061E-2,8.843661E-1,-3.3069998E-2,-2.765482E-1,1.1729883E0,1.2417163E0,-6.489792E-1,-1.3662478E-1,1.2537149E-1,-6.780369E-1,1.5130871E-2,1.4600881E0,-1.6436246E-1,-2.8476983E-1,-4.9430424E-1,-7.323083E-1,-1.9785284E-1,-6.3867223E-1,-1.2804757E-1,3.96546E-2,-1.4120421E-1,1.5949488E0,-2.6842764E-1,-1.612494E-1,1.6764215E0,8.7848496E-1,-1.6995811E-1,5.37354E-2,1.9016739E0,-5.5342898E-2,9.8961204E-2,-1.5501057E-1,1.39138885E-2,6.1842762E-2,-1.2683347E-1,1.7529403E-1,-1.02867834E-1,1.419728E-1,-8.587924E-2,5.646963E-1,1.6311084E-1,-9.497807E-2,2.1472625E-1,-9.2166245E-2,1.5011428E-1,2.3671526E-1,1.22044474E-1,1.8872388E-1,-1.1560101E-1,-1.369804E-1,2.4487065E-1,2.6136097E-1,-5.865481E-2,6.739745E-2,-1.23112954E-1,2.4648684E-1,-9.336403E-3],"split_indices":[6,11,0,5,1,1,5,15,1,0,2,0,0,9,4,16,9,5,1,0,0,13,13,1,14,16,6,1,5,4,0,13,4,1,4,0,9,8,4,9,4,0,0,0,0,0,0,0,0,0,0,0,0,0,0,0,0,0,0,0,0,0,0,0,0,0,0,0,0],"split_type":[0,0,0,0,0,0,0,0,0,0,0,0,0,0,0,0,0,0,0,0,0,0,0,0,0,0,0,0,0,0,0,0,0,0,0,0,0,0,0,0,0,0,0,0,0,0,0,0,0,0,0,0,0,0,0,0,0,0,0,0,0,0,0,0,0,0,0,0,0],"sum_hessian":[7.5603107E2,2.5386879E2,5.021623E2,1.447658E2,1.09103004E2,5.7740433E1,4.4442188E2,1.3304381E2,1.1721985E1,1.0221751E2,6.885501E0,5.669115E1,1.0492798E0,2.7185977E2,1.7256207E2,7.210047E1,6.0943336E1,5.5904E0,6.131585E0,5.3817554E0,1.5037459E0,2.5782492E2,1.4034854E1,1.0425788E2,6.83042E1,5.4004498E1,1.8095972E1,5.8145855E1,2.7974796E0,2.3734307E0,3.2169695E0,3.3701332E0,2.7614517E0,2.002545E1,2.3779948E2,9.86257E0,4.1722836E0,9.326293E1,1.0994945E1,1.8192762E1,5.0111435E1,3.138253E1,2.2621967E1,1.6926926E1,1.1690471E0,1.0176448E0,5.7128212E1,1.1264707E0,1.6710091E0,1.2373568E0,1.136074E0,1.6575886E0,1.7125447E0,1.248421E0,1.5130309E0,1.6499672E1,3.5257785E0,9.347302E1,1.4432646E2,1.7967589E0,2.375525E0,9.117806E1,2.0848765E0,7.2596908E0,3.7352538E0,7.421463E0,1.0771299E1,4.3935116E1,6.176322E0],"tree_param":{"num_deleted":"0","num_feature":"18","num_nodes":"69","size_leaf_vector":"1"}},{"base_weights":[5.560394E-2,-1.936779E-2,5.629853E-1,-3.8701043E-1,5.2606232E-2,-1.1069556E-2,6.2668526E-1,2.9389206E-1,-4.1180983E-1,1.9331206E-1,-2.0441695E-1,-1.3300796E-1,3.234376E-1,4.8006538E-1,8.512321E-1,4.529537E-1,-4.4875088E-1,5.0463605E-1,6.808269E-2,2.5599845E-2,-3.4620494E-1,2.7277302E-2,2.1096373E-1,6.5466267E-1,-9.112631E-2,4.787632E-1,2.783779E-1,2.5560966E-1,-1.08400084E-1,-5.007503E-1,-2.3573391E-1,5.817028E-1,-1.5289034E-1,-7.327323E-2,3.306189E-1,8.668023E-1,-2.3926753E-1,-3.9688915E-1,3.0278742E-1,-1.2087207E-1,1.1683221E-1,8.468247E-1,4.477459E-1,2.2787061E-1,-2.5491893E-1,1.697032E-3,6.849626E-1,-1.6039407E-1,1.2609418E-2,1.12529695E-1,-1.380169E-1,1.1102005E-1,2.5650784E-1,-4.2264726E-2,3.337322E-1,-6.430334E-2,1.8002553E-1,4.4343862E-1,1.3254997E-1,6.910843E-2,-1.1323979E-1,-1.3198544E-1,4.2883355E-2,-1.0532111E-1,2.7601162E-1,3.6122862E-1,1.6255847E-1,3.3099603E-2,2.2100286E-1,1.2861711E-1,-1.3263936E-1,-9.769585E-2,9.409412E-2,2.3825525E-1,3.7735254E-2],"categories":[],"categories_nodes":[],"categories_segments":[],"categories_sizes":[],"default_left":[0,0,0,0,0,0,0,0,0,0,0,0,0,0,0,0,0,0,0,0,0,0,0,0,0,0,0,0,0,0,0,0,0,0,0,0,0,0,0,0,0,0,0,0,0,0,0,0,0,0,0,0,0,0,0,0,0,0,0,0,0,0,0,0,0,0,0,0,0,0,0,0,0,0,0],"id":27,"left_children":[1,3,5,7,9,11,13,-1,15,17,19,-1,21,23,25,27,29,31,33,35,37,39,-1,41,43,45,-1,-1,-1,47,49,51,-1,53,55,57,59,61,63,-1,-1,65,67,-1,69,71,73,-1,-1,-1,-1,-1,-1,-1,-1,-1,-1,-1,-1,-1,-1,-1,-1,-1,-1,-1,-1,-1,-1,-1,-1,-1,-1,-1,-1],"loss_changes":[2.922731E1,1.7752922E1,3.6239052E0,4.1259995E0,2.0339125E1,1.7141186E0,2.5231628E0,0E0,3.6719646E0,1.4127558E1,6.5010157E0,0E0,7.346069E-1,5.661085E0,5.236721E-1,1.9151689E0,1.040987E0,8.4293E0,9.680627E0,1.7328743E1,4.173291E0,9.056393E-1,0E0,1.3361397E0,2.148125E0,7.711971E-1,0E0,0E0,0E0,1.5535145E0,3.2446933E0,5.304077E0,0E0,1.3781154E1,1.3528372E1,4.1837454E0,3.930833E0,2.7298584E0,4.154383E0,0E0,0E0,1.662324E0,2.1506677E0,0E0,1.7907963E0,4.4647318E-1,2.3476458E-1,0E0,0E0,0E0,0E0,0E0,0E0,0E0,0E0,0E0,0E0,0E0,0E0,0E0,0E0,0E0,0E0,0E0,0E0,0E0,0E0,0E0,0E0,0E0,0E0,0E0,0E0,0E0,0E0],"parents":[2147483647,0,0,1,1,2,2,3,3,4,4,5,5,6,6,8,8,9,9,10,10,12,12,13,13,14,14,15,15,16,16,17,17,18,18,19,19,20,20,21,21,23,23,24,24,25,25,29,29,30,30,31,31,33,33,34,34,35,35,36,36,37,37,38,38,41,41,42,42,44,44,45,45,46,46],"right_children":[2,4,6,8,10,12,14,-1,16,18,20,-1,22,24,26,28,30,32,34,36,38,40,-1,42,44,46,-1,-1,-1,48,50,52,-1,54,56,58,60,62,64,-1,-1,66,68,-1,70,72,74,-1,-1,-1,-1,-1,-1,-1,-1,-1,-1,-1,-1,-1,-1,-1,-1,-1,-1,-1,-1,-1,-1,-1,-1,-1,-1,-1,-1],"split_conditions":[8.742519E-1,-4.6134415E-1,-1.4113433E0,-1.7833076E0,-5.3199794E-2,1.9016739E0,-3.9113602E-1,2.9389206E-1,-1.1875907E0,-6.3867223E-1,-3.0357154E-2,-1.3300796E-1,-2.8058328E-2,-2.8218448E-1,-8.8070744E-1,1.6358479E0,-1.6995811E-1,1.6764215E0,1.3490808E0,-2.5419185E-2,1.5849715E0,-2.4945904E-2,2.1096373E-1,-4.0373003E-1,-7.5214833E-1,-2.7833372E-1,2.783779E-1,2.5560966E-1,-1.08400084E-1,3.279632E-1,-6.896859E-1,-6.4905274E-1,-1.5289034E-1,